{"learner":{"attributes":{"best_iteration":"102","best_score":"0.1596787170369764","scikit_learn":"{\"_estimator_type\": \"classifier\"}"},"feature_names":[],"feature_types":[],"gradient_booster":{"model":{"gbtree_model_param":{"num_parallel_tree":"1","num_trees":"123"},"iteration_indptr":[0,1,2,3,4,5,6,7,8,9,10,11,12,13,14,15,16,17,18,19,20,21,22,23,24,25,26,27,28,29,30,31,32,33,34,35,36,37,38,39,40,41,42,43,44,45,46,47,48,49,50,51,52,53,54,55,56,57,58,59,60,61,62,63,64,65,66,67,68,69,70,71,72,73,74,75,76,77,78,79,80,81,82,83,84,85,86,87,88,89,90,91,92,93,94,95,96,97,98,99,100,101,102,103,104,105,106,107,108,109,110,111,112,113,114,115,116,117,118,119,120,121,122,123],"tree_info":[0,0,0,0,0,0,0,0,0,0,0,0,0,0,0,0,0,0,0,0,0,0,0,0,0,0,0,0,0,0,0,0,0,0,0,0,0,0,0,0,0,0,0,0,0,0,0,0,0,0,0,0,0,0,0,0,0,0,0,0,0,0,0,0,0,0,0,0,0,0,0,0,0,0,0,0,0,0,0,0,0,0,0,0,0,0,0,0,0,0,0,0,0,0,0,0,0,0,0,0,0,0,0,0,0,0,0,0,0,0,0,0,0,0,0,0,0,0,0,0,0,0,0],"trees":[{"base_weights":[-5.0821714E-4,5.5959314E-1,-1.6065551E0,1.2009327E0,-5.934369E-1,-1.7026441E0,-8.249281E-1,1.5699796E-1,1.6078471E0,6.2817883E-1,-1.0807092E0,-1.7427174E0,-1.4380397E0,-1.1606136E-1,-2.695047E-1,1.3037906E0,-2.06913E-1,3.865854E-1,1.7727743E0,1.2550243E0,-4.573762E-1,-1.3005078E0,4.0678886E-1,-1.6970626E0,-1.7990004E0,-2.806864E-1,-3.804452E-1,3.9018053E-1,1.4218533E-1,5.8862233E-1,-5.8638996E-1,2.8243053E-1,-8.0818236E-2,1.1156719E0,1.9769796E0,4.5109406E-1,7.190078E-1,-2.2416748E-1,2.9427947E-2,-1.5196828E0,-5.504868E-1,2.2937095E-1,-4.588496E-2,-1.7563668E0,-1.6317465E0,-1.823573E0,-1.7397413E0,2.6262802E-1,-7.763141E-2,-9.753895E-1,4.717761E-2,1.6077286E0,4.6867472E-1,2.076524E0,1.5088768E0,3.1296158E-1,-1.5875673E-2,-1.6311909E0,-1.5728332E-1,3.297357E-2,-2.5353906E-1,-3.7424195E-1,-1.7865778E0,-3.3181953E-1,-1.6957675E0,-4.002895E-1,-1.8332685E0,-4.079432E-1,-3.711676E-1,-1.2974076E0,-1.20032646E-1,2.4179822E-1,1.9658164E0,2.2529133E-1,-4.8745107E-2,3.4046856E-1,2.1192174E0,1.8858795E0,1.7047364E-1,-2.3043221E-1,-1.7097825E0,-3.8627267E-1,-1.8171566E0,-4.001476E-1,-3.6319202E-1,-4.1055375E-1,-1.8332685E0,-3.446627E-1,-2.4256265E-1,4.7555235E-1,4.0547243E-1,2.166087E0,1.8658367E0,4.6696234E-1,3.6850503E-1,-1.7558392E0,-3.0925396E-1,-4.0197855E-1,-4.1055375E-1,-4.1055375E-1,-4.1055375E-1,2.1831605E0,4.4502357E-1,3.5231397E-1,4.761942E-1,-1.8061328E0,-1.6306796E0,4.9239892E-1,4.7166187E-1,-3.925287E-1,-4.09028E-1,-3.3818603E-1,-3.936177E-1],"categories":[],"categories_nodes":[],"categories_segments":[],"categories_sizes":[],"default_left":[0,0,0,0,0,0,0,0,0,0,0,0,0,0,0,0,0,0,0,0,0,0,0,0,0,0,0,0,0,0,0,0,0,0,0,0,0,0,0,0,0,0,0,0,0,0,0,0,0,0,0,0,0,0,0,0,0,0,0,0,0,0,0,0,0,0,0,0,0,0,0,0,0,0,0,0,0,0,0,0,0,0,0,0,0,0,0,0,0,0,0,0,0,0,0,0,0,0,0,0,0,0,0,0,0,0,0,0,0,0,0,0,0],"id":0,"left_children":[1,3,5,7,9,11,13,15,17,19,21,23,25,-1,-1,27,29,31,33,35,37,39,41,43,45,-1,-1,-1,-1,47,49,-1,-1,51,53,-1,55,-1,-1,57,59,-1,-1,61,63,65,67,-1,-1,69,-1,71,73,75,77,-1,-1,79,-1,-1,-1,-1,81,-1,83,-1,85,-1,-1,87,-1,-1,89,-1,-1,-1,91,93,-1,-1,95,-1,97,-1,-1,-1,99,-1,-1,-1,-1,101,103,-1,-1,105,-1,-1,-1,-1,-1,107,-1,-1,-1,109,111,-1,-1,-1,-1,-1,-1],"loss_changes":[5.861822E3,3.5727817E3,1.2654932E2,1.3188125E3,1.0279224E3,1.5910645E1,2.1411858E1,3.633853E2,4.4994434E2,3.3506146E2,4.036046E2,3.3483887E0,9.504578E0,0E0,0E0,6.1521484E1,1.9954361E2,1.7374536E2,2.6408496E2,1.27038025E2,5.7691326E1,1.76802E2,6.0021477E1,2.7871094E0,8.499756E-1,0E0,0E0,0E0,0E0,1.1661808E2,1.3875455E2,0E0,0E0,1.4854913E2,6.996387E1,0E0,9.8060814E1,0E0,0E0,7.5858154E1,9.8707954E1,0E0,0E0,9.711914E-1,3.2891846E0,1.4465332E-1,1.1532593E0,0E0,0E0,4.2553497E1,0E0,5.0112427E1,7.433684E1,2.9401855E1,7.421661E1,0E0,0E0,3.4664185E1,0E0,0E0,0E0,0E0,5.2557373E-1,0E0,1.6164551E0,0E0,2.4414062E-4,0E0,0E0,8.986053E0,0E0,0E0,3.866211E0,0E0,0E0,0E0,1.365625E1,8.384399E0,0E0,0E0,9.812134E0,0E0,6.652832E-2,0E0,0E0,0E0,1.2207031E-4,0E0,0E0,0E0,0E0,2.9638672E0,1.3685608E1,0E0,0E0,3.5769043E0,0E0,0E0,0E0,0E0,0E0,1.0625E0,0E0,0E0,0E0,4.3945312E-1,2.4932861E0,0E0,0E0,0E0,0E0,0E0,0E0],"parents":[2147483647,0,0,1,1,2,2,3,3,4,4,5,5,6,6,7,7,8,8,9,9,10,10,11,11,12,12,15,15,16,16,17,17,18,18,19,19,20,20,21,21,22,22,23,23,24,24,29,29,30,30,33,33,34,34,36,36,39,39,40,40,43,43,44,44,45,45,46,46,49,49,51,51,52,52,53,53,54,54,57,57,62,62,64,64,66,66,69,69,72,72,76,76,77,77,80,80,82,82,86,86,91,91,92,92,95,95,101,101,105,105,106,106],"right_children":[2,4,6,8,10,12,14,16,18,20,22,24,26,-1,-1,28,30,32,34,36,38,40,42,44,46,-1,-1,-1,-1,48,50,-1,-1,52,54,-1,56,-1,-1,58,60,-1,-1,62,64,66,68,-1,-1,70,-1,72,74,76,78,-1,-1,80,-1,-1,-1,-1,82,-1,84,-1,86,-1,-1,88,-1,-1,90,-1,-1,-1,92,94,-1,-1,96,-1,98,-1,-1,-1,100,-1,-1,-1,-1,102,104,-1,-1,106,-1,-1,-1,-1,-1,108,-1,-1,-1,110,112,-1,-1,-1,-1,-1,-1],"split_conditions":[4.347826E-2,-2.550361E-4,3.529412E-1,-8.154271E-3,2.9210662E-2,2.1142636E-1,-2.4493588E-2,-5.0034385E-2,8.26288E-3,8.766377E-4,1E0,-4.9348347E-2,-6.081288E-2,-1.1606136E-1,-2.695047E-1,-7.566707E-3,2.9767757E-2,2.9767757E-2,-1.9733494E-2,-5.0034385E-2,6.4678947E-3,2.0770366E-1,-2.1865718E-2,1.4814754E-1,4.5864716E-2,-2.806864E-1,-3.804452E-1,3.9018053E-1,1.4218533E-1,-1.8279297E-2,1.1729342E-2,2.8243053E-1,-8.0818236E-2,-6.7512086E-4,4.5869395E-2,4.5109406E-1,1.1891313E-2,-2.2416748E-1,2.9427947E-2,1.7060006E-2,2.0275568E-3,2.2937095E-1,-4.588496E-2,-3.11167E-2,-6.9446755E-3,-2.1105884E-2,1.3986097E-3,2.6262802E-1,-7.763141E-2,2.1017475E-2,4.717761E-2,-8.000649E-3,-1.9086698E-2,-3.1867787E-2,-3.1804934E-3,3.1296158E-1,-1.5875673E-2,3.687013E-3,-1.5728332E-1,3.297357E-2,-2.5353906E-1,-3.7424195E-1,-1.2870654E-2,-3.3181953E-1,1.3147082E-2,-4.002895E-1,-1.7268272E-5,-4.079432E-1,-3.711676E-1,-2.119603E-3,-1.20032646E-1,2.4179822E-1,-3.218362E-3,2.2529133E-1,-4.8745107E-2,3.4046856E-1,7.543506E-3,-3.3462726E-2,1.7047364E-1,-2.3043221E-1,4.1773014E-2,-3.8627267E-1,2.00407E-2,-4.001476E-1,-3.6319202E-1,-4.1055375E-1,-4.4107623E-2,-3.446627E-1,-2.4256265E-1,4.7555235E-1,4.0547243E-1,1.1847935E-2,2.3025224E-2,4.6696234E-1,3.6850503E-1,3.2588094E-5,-3.0925396E-1,-4.0197855E-1,-4.1055375E-1,-4.1055375E-1,-4.1055375E-1,5.3875083E-3,4.4502357E-1,3.5231397E-1,4.761942E-1,-9.692802E-2,1.4365232E-2,4.9239892E-1,4.7166187E-1,-3.925287E-1,-4.09028E-1,-3.3818603E-1,-3.936177E-1],"split_indices":[1,264,0,91,52,4,102,65,195,102,6,89,143,0,0,102,177,177,279,65,107,4,199,4,13,0,0,0,0,85,186,0,0,102,213,0,264,0,0,62,73,0,0,144,102,300,136,0,0,195,0,160,264,208,102,0,0,219,0,0,0,0,216,0,205,0,257,0,0,98,0,0,37,0,0,0,118,85,0,0,180,0,262,0,0,0,256,0,0,0,0,116,186,0,0,227,0,0,0,0,0,119,0,0,0,143,113,0,0,0,0,0,0],"split_type":[0,0,0,0,0,0,0,0,0,0,0,0,0,0,0,0,0,0,0,0,0,0,0,0,0,0,0,0,0,0,0,0,0,0,0,0,0,0,0,0,0,0,0,0,0,0,0,0,0,0,0,0,0,0,0,0,0,0,0,0,0,0,0,0,0,0,0,0,0,0,0,0,0,0,0,0,0,0,0,0,0,0,0,0,0,0,0,0,0,0,0,0,0,0,0,0,0,0,0,0,0,0,0,0,0,0,0,0,0,0,0,0,0],"sum_hessian":[6.5164004E3,4.8314536E3,1.6849468E3,3.1046062E3,1.7268473E3,1.5004852E3,1.844615E2,8.707377E2,2.2338687E3,4.9239322E2,1.2344541E3,1.3031313E3,1.9735397E2,1.0190011E2,8.25614E1,2.0975058E2,6.6098706E2,2.6578326E2,1.9680853E3,3.1214655E2,1.8024666E2,1.0755297E3,1.589245E2,7.194991E2,5.8363226E2,1.1553638E2,8.1817604E1,1.2669332E2,8.305727E1,2.1346957E2,4.4751752E2,1.2247848E2,1.4330478E2,4.6660828E2,1.501477E3,1.2917264E2,1.8297392E2,9.3718346E1,8.652831E1,8.3230817E2,2.4322142E2,7.9090355E1,7.9834145E1,3.7710477E2,3.423943E2,4.1255908E2,1.7107318E2,1.3140404E2,8.206554E1,3.0074167E2,1.4677582E2,2.6503946E2,2.0156883E2,1.2381731E3,2.6330392E2,9.8429054E1,8.454486E1,7.3239154E2,9.991665E1,1.10577736E2,1.3264369E2,9.867699E1,2.784278E2,1.0239597E2,2.399983E2,8.727211E1,3.2528696E2,8.5784515E1,8.528866E1,1.7355249E2,1.27189186E2,1.0710668E2,1.5793277E2,1.1305705E2,8.851177E1,8.826384E1,1.1499093E3,1.7504008E2,8.826384E1,8.454486E1,6.478467E2,9.223075E1,1.8619704E2,1.0760255E2,1.3239577E2,9.892492E1,2.2636205E2,8.156967E1,9.198283E1,7.834656E1,7.958621E1,9.704064E2,1.7950287E2,9.5701805E1,7.933829E1,5.6826044E2,7.958621E1,7.834656E1,1.0785048E2,9.297455E1,1.3338748E2,8.858615E2,8.454486E1,8.454486E1,9.495801E1,4.0536905E2,1.6289142E2,7.368543E2,1.4900722E2,1.1181739E2,2.9355164E2,8.355313E1,7.933829E1],"tree_param":{"num_deleted":"0","num_feature":"307","num_nodes":"113","size_leaf_vector":"1"}},{"base_weights":[-5.2626333E-3,4.3892777E-1,-1.3419574E0,9.046017E-1,-5.5541724E-1,-1.4356846E0,-7.026551E-1,-5.1941086E-2,1.1988673E0,7.235194E-1,-8.801067E-1,-1.4714488E0,-1.1960706E0,-2.3254596E-1,-9.945983E-2,7.7184826E-1,-5.3568584E-1,1.338807E0,7.757033E-2,1.3351504E0,-1.1685638E-2,-1.0759711E0,2.8669423E-1,-1.4979578E0,-1.3904183E0,-2.1785574E-1,-3.094958E-1,1.2494389E0,1.1652686E-2,-8.1246454E-1,9.668271E-2,3.2288787E-1,1.4486433E0,-5.134932E-1,2.3859598E-1,3.788889E-1,2.2701617E-1,-4.1406658E-1,-1.296397E0,1.740035E-1,-4.941374E-2,-1.524606E0,-1.4155484E0,-2.851009E-1,-1.4925987E0,3.8524947E-1,1.7259666E-1,-1.7849568E-2,-1.0798452E0,2.1174058E-1,-1.0221292E-1,1.000642E0,1.6120602E0,1.9219039E-2,-2.2804117E-1,-2.0472597E-1,6.189653E-2,-9.433663E-1,-1.4442003E0,-1.5388523E0,-3.2096395E-1,-2.828559E-1,-3.3860585E-1,-3.4817848E-1,-3.200756E-1,-1.3167033E0,-1.5430462E-1,1.3187364E0,4.0172192E-1,2.0720388E-1,1.6548699E0,-8.363987E-2,-2.8641623E-1,-1.5019896E0,-2.6205802E-1,-1.5155147E0,-1.5573533E0,-2.5801787E-1,-3.3512998E-1,1.5486434E0,1.4267766E-1,-3.128582E-2,2.4149251E-1,1.6947558E0,2.605223E-1,-1.5442626E0,-3.054086E-1,-3.4769994E-1,-3.2852095E-1,-3.5131875E-1,-1.5509492E0,3.8431865E-1,2.937906E-1,1.7246561E0,3.1314427E-1,-3.285211E-1,-1.56688E0,-3.4548935E-1,-3.4871063E-1,3.9191866E-1,3.3350572E-1,-3.4899074E-1,-3.555117E-1],"categories":[],"categories_nodes":[],"categories_segments":[],"categories_sizes":[],"default_left":[0,0,0,0,0,0,0,0,0,0,0,0,0,0,0,0,0,0,0,0,0,0,0,0,0,0,0,0,0,0,0,0,0,0,0,0,0,0,0,0,0,0,0,0,0,0,0,0,0,0,0,0,0,0,0,0,0,0,0,0,0,0,0,0,0,0,0,0,0,0,0,0,0,0,0,0,0,0,0,0,0,0,0,0,0,0,0,0,0,0,0,0,0,0,0,0,0,0,0,0,0,0,0],"id":1,"left_children":[1,3,5,7,9,11,13,15,17,19,21,23,25,-1,-1,27,29,31,33,35,-1,37,39,41,43,-1,-1,45,-1,47,-1,49,51,53,-1,-1,-1,55,57,-1,-1,59,61,-1,63,-1,-1,-1,65,-1,-1,67,69,-1,-1,-1,-1,71,73,75,-1,-1,-1,-1,-1,77,-1,79,81,-1,83,-1,-1,85,-1,87,89,-1,-1,91,-1,-1,-1,93,-1,95,-1,-1,-1,-1,97,-1,-1,99,-1,-1,101,-1,-1,-1,-1,-1,-1],"loss_changes":[3.7568145E3,2.1990427E3,9.456348E1,9.1041016E2,6.290067E2,1.1794922E1,1.7515366E1,3.032316E2,3.8812207E2,1.4550781E2,2.7608093E2,2.572754E0,7.4207764E0,0E0,0E0,9.6779175E1,1.283653E2,2.4537866E2,1.6024124E2,1.9663086E1,0E0,1.509209E2,4.3192566E1,1.9816895E0,3.5396729E0,0E0,0E0,3.8145996E1,0E0,7.303331E1,0E0,1.0410129E2,1.4528564E2,5.194564E1,0E0,0E0,0E0,8.923241E1,4.04906E1,0E0,0E0,8.8793945E-1,3.2430725E0,0E0,6.212158E-1,0E0,0E0,0E0,2.5281067E1,0E0,0E0,1.0104834E2,4.2753662E1,0E0,0E0,0E0,0E0,4.379596E1,8.661499E0,2.5463867E-1,0E0,0E0,0E0,0E0,0E0,5.030609E0,0E0,5.428723E1,6.74019E1,0E0,2.6835693E1,0E0,0E0,2.6396484E0,0E0,4.6972656E-1,2.4047852E-2,0E0,0E0,1.02716675E1,0E0,0E0,0E0,1.1222168E1,0E0,6.0479736E-1,0E0,0E0,0E0,0E0,1.071167E-2,0E0,0E0,6.8771973E0,0E0,0E0,4.6936035E-2,0E0,0E0,0E0,0E0,0E0,0E0],"parents":[2147483647,0,0,1,1,2,2,3,3,4,4,5,5,6,6,7,7,8,8,9,9,10,10,11,11,12,12,15,15,16,16,17,17,18,18,19,19,21,21,22,22,23,23,24,24,27,27,29,29,31,31,32,32,33,33,37,37,38,38,41,41,42,42,44,44,48,48,51,51,52,52,57,57,58,58,59,59,65,65,67,67,68,68,70,70,73,73,75,75,76,76,79,79,83,83,85,85,90,90,93,93,96,96],"right_children":[2,4,6,8,10,12,14,16,18,20,22,24,26,-1,-1,28,30,32,34,36,-1,38,40,42,44,-1,-1,46,-1,48,-1,50,52,54,-1,-1,-1,56,58,-1,-1,60,62,-1,64,-1,-1,-1,66,-1,-1,68,70,-1,-1,-1,-1,72,74,76,-1,-1,-1,-1,-1,78,-1,80,82,-1,84,-1,-1,86,-1,88,90,-1,-1,92,-1,-1,-1,94,-1,96,-1,-1,-1,-1,98,-1,-1,100,-1,-1,102,-1,-1,-1,-1,-1,-1],"split_conditions":[4.347826E-2,2.133493E-3,2E-1,-1.2161019E-2,-4.722157E-2,2.1142636E-1,6.1218627E-3,-3.761647E-2,4.6601348E-2,3.9394893E-2,1E0,7.6750904E-2,-4.784275E-2,-2.3254596E-1,-9.945983E-2,-1.0301386E-3,1E0,5.829758E-3,2.1584315E-2,1.9726373E-2,-1.1685638E-2,3.378021E-2,-1.827555E-2,2.0449411E-2,-3.0430272E-2,-2.1785574E-1,-3.094958E-1,2.1011358E-2,1.1652686E-2,3.129952E-2,9.668271E-2,-2.3897283E-3,-1.6871285E-2,5.320809E-4,2.3859598E-1,3.788889E-1,2.2701617E-1,-4.5543355E-3,1.3346968E-2,1.740035E-1,-4.941374E-2,4.0045034E-2,-1.4526305E-3,-2.851009E-1,2.0172073E-2,3.8524947E-1,1.7259666E-1,-1.7849568E-2,1.8452872E-2,2.1174058E-1,-1.0221292E-1,5.107365E-3,2.9844E-3,1.9219039E-2,-2.2804117E-1,-2.0472597E-1,6.189653E-2,3.502009E-2,3.109187E-3,4.7517434E-4,-3.2096395E-1,-2.828559E-1,-3.3860585E-1,-3.4817848E-1,-3.200756E-1,-1.279127E-2,-1.5430462E-1,4.389793E-2,1.5652657E-2,2.0720388E-1,3.1080782E-2,-8.363987E-2,-2.8641623E-1,3.1760416E-3,-2.6205802E-1,9.079868E-3,-4.991678E-2,-2.5801787E-1,-3.3512998E-1,2.5836166E-4,1.4267766E-1,-3.128582E-2,2.4149251E-1,1.3446236E-2,2.605223E-1,-7.473372E-3,-3.054086E-1,-3.4769994E-1,-3.2852095E-1,-3.5131875E-1,1.6419416E-2,3.8431865E-1,2.937906E-1,1.541696E-2,3.1314427E-1,-3.285211E-1,1.8426871E-1,-3.4548935E-1,-3.4871063E-1,3.9191866E-1,3.3350572E-1,-3.4899074E-1,-3.555117E-1],"split_indices":[1,264,0,91,65,4,299,65,194,52,6,13,65,0,0,102,6,195,186,177,0,52,199,43,65,0,0,52,0,213,0,102,279,58,0,0,0,91,219,0,0,158,17,0,58,0,0,0,159,0,0,102,159,0,0,0,0,194,62,38,0,0,0,0,0,199,0,177,186,0,68,0,0,227,0,223,89,0,0,17,0,0,0,236,0,253,0,0,0,0,13,0,0,119,0,0,5,0,0,0,0,0,0],"split_type":[0,0,0,0,0,0,0,0,0,0,0,0,0,0,0,0,0,0,0,0,0,0,0,0,0,0,0,0,0,0,0,0,0,0,0,0,0,0,0,0,0,0,0,0,0,0,0,0,0,0,0,0,0,0,0,0,0,0,0,0,0,0,0,0,0,0,0,0,0,0,0,0,0,0,0,0,0,0,0,0,0,0,0,0,0,0,0,0,0,0,0,0,0,0,0,0,0,0,0,0,0,0,0],"sum_hessian":[6.327299E3,4.7491367E3,1.578162E3,3.2343967E3,1.5147399E3,1.3763739E3,2.0178807E2,7.609253E2,2.4734714E3,3.0669247E2,1.2080475E3,1.1976201E3,1.7875385E2,8.778498E1,1.1400308E2,2.815174E2,4.7940787E2,2.199029E3,2.7444235E2,1.7148131E2,1.3521115E2,1.0344072E3,1.7364026E2,9.024E2,2.9522006E2,8.122367E1,9.753018E1,1.6923291E2,1.122845E2,3.7276004E2,1.06647835E2,2.1455232E2,1.9844767E3,1.7170505E2,1.027373E2,8.128008E1,9.020122E1,2.5841803E2,7.759892E2,8.830399E1,8.533626E1,6.8189954E2,2.2050052E2,1.3741557E2,1.5780449E2,8.5320114E1,8.3912796E1,9.965483E1,2.731052E2,1.19266716E2,9.5285614E1,5.304012E2,1.4540756E3,7.850278E1,9.320227E1,1.4986713E2,1.08550896E2,2.2900551E2,5.4698364E2,5.89935E2,9.196451E1,8.542754E1,1.3507298E2,7.966015E1,7.814434E1,1.7004736E2,1.0305783E2,3.4641534E2,1.8398587E2,8.5315E1,1.3687605E3,8.487385E1,1.4413167E2,4.51718E2,9.52657E1,2.6086884E2,3.290662E2,8.8779274E1,8.126809E1,2.590428E2,8.737254E1,1.0220415E2,8.1781715E1,1.2660298E3,1.0273073E2,3.4592856E2,1.0578941E2,1.478929E2,1.12975945E2,1.1829804E2,2.1076814E2,1.5172174E2,1.0732105E2,1.1500378E3,1.1599198E2,7.830508E1,2.6762347E2,9.037532E1,1.20392815E2,1.0380475E3,1.11990326E2,1.8938876E2,7.823472E1],"tree_param":{"num_deleted":"0","num_feature":"307","num_nodes":"103","size_leaf_vector":"1"}},{"base_weights":[-6.7298627E-3,3.598395E-1,-1.1695137E0,8.078941E-1,-3.5670295E-1,-1.258625E0,-5.2629656E-1,-8.014569E-2,1.013486E0,3.899474E-1,-7.829201E-1,-1.2977144E0,-1.0134869E0,-1.7977786E-1,-4.622337E-2,5.598451E-1,-6.034041E-1,1.1881999E0,3.496235E-1,8.8330215E-1,-3.7163594E-1,-9.691043E-1,8.0371074E-2,-1.3289039E0,-1.1961899E0,-2.6863474E-1,-1.7818752E-1,-3.9361972E-2,2.164911E-1,4.533601E-2,-9.7685474E-1,3.5437152E-1,1.2850931E0,-8.310709E-2,1.0551066E0,1.234305E0,4.213673E-2,4.167629E-2,-1.6054243E-1,-4.333873E-1,-1.175527E0,-2.709116E-1,-1.3545688E0,-1.2784047E0,-2.3097898E-1,-2.929972E-1,-1.3788506E-1,2.3657252E-1,-5.3999215E-2,7.7615225E-1,1.4013865E0,-5.090839E-1,1.133571E-1,1.6413313E-1,3.2215604E-1,1.673335E-1,1.482953E0,-2.1596748E-1,3.6418606E-2,-1.2326049E-1,-1.2745775E0,-1.3698864E0,-2.818771E-1,-2.6590192E-1,-3.049777E-1,2.8830534E-1,5.3368792E-2,2.1446249E-1,1.4591688E0,-3.449532E-2,-1.9693851E-1,2.966151E-1,3.687762E-1,-1.3602699E0,-1.0395398E0,-2.960368E-1,-1.385028E0,2.4818866E-1,1.4967885E0,-2.679228E-1,-1.4030814E0,-2.789594E-1,-1.8535186E-1,-2.994352E-1,-1.3967309E0,2.8242648E-1,1.5199184E0,-2.9254827E-1,-1.4455731E0,-1.4026427E0,-3.089138E-1,3.0092528E-1,3.4485054E-1,-3.3524856E-1,-3.0881003E-1,-3.1555638E-1,-3.1301522E-1],"categories":[],"categories_nodes":[],"categories_segments":[],"categories_sizes":[],"default_left":[0,0,0,0,0,0,0,0,0,0,0,0,0,0,0,0,0,0,0,0,0,0,0,0,0,0,0,0,0,0,0,0,0,0,0,0,0,0,0,0,0,0,0,0,0,0,0,0,0,0,0,0,0,0,0,0,0,0,0,0,0,0,0,0,0,0,0,0,0,0,0,0,0,0,0,0,0,0,0,0,0,0,0,0,0,0,0,0,0,0,0,0,0,0,0,0,0],"id":2,"left_children":[1,3,5,7,9,11,13,15,17,19,21,23,25,-1,-1,27,29,31,33,35,37,39,-1,41,43,-1,-1,-1,-1,-1,45,47,49,51,53,55,-1,-1,-1,57,59,-1,61,63,-1,-1,-1,-1,-1,65,67,69,-1,-1,-1,-1,71,-1,-1,-1,73,75,-1,-1,-1,-1,-1,-1,77,-1,-1,-1,-1,79,81,-1,83,-1,85,-1,87,-1,-1,-1,89,-1,91,-1,93,95,-1,-1,-1,-1,-1,-1,-1],"loss_changes":[2.5344468E3,1.4514165E3,8.168994E1,5.0783655E2,5.535065E2,1.1994995E1,1.5337864E1,1.7510973E2,2.619707E2,2.3748337E2,2.3538446E2,3.4187012E0,6.977005E0,0E0,0E0,7.039819E1,8.657775E1,1.4446167E2,1.4366003E2,9.359201E1,4.7846092E1,1.0527698E2,0E0,2.526123E0,3.4374695E0,0E0,0E0,0E0,0E0,0E0,2.3534042E1,7.781761E1,9.481152E1,7.321622E1,2.2102142E1,3.0870148E1,0E0,0E0,0E0,8.380054E1,4.255127E1,0E0,9.9816895E-1,1.2859802E0,0E0,0E0,0E0,0E0,0E0,8.192667E1,3.3433838E1,2.2258968E1,0E0,0E0,0E0,0E0,4.378937E0,0E0,0E0,0E0,1.1947876E1,4.2578125E-1,0E0,0E0,0E0,0E0,0E0,0E0,1.5230957E1,0E0,0E0,0E0,0E0,3.050354E0,6.9216003E0,0E0,2.4993896E-1,0E0,5.6796875E0,0E0,1.4171143E0,0E0,0E0,0E0,3.668213E-2,0E0,3.3371582E0,0E0,8.206787E-1,8.422852E-3,0E0,0E0,0E0,0E0,0E0,0E0,0E0],"parents":[2147483647,0,0,1,1,2,2,3,3,4,4,5,5,6,6,7,7,8,8,9,9,10,10,11,11,12,12,15,15,16,16,17,17,18,18,19,19,20,20,21,21,23,23,24,24,30,30,31,31,32,32,33,33,34,34,35,35,39,39,40,40,42,42,43,43,49,49,50,50,51,51,56,56,60,60,61,61,68,68,73,73,74,74,76,76,78,78,80,80,84,84,86,86,88,88,89,89],"right_children":[2,4,6,8,10,12,14,16,18,20,22,24,26,-1,-1,28,30,32,34,36,38,40,-1,42,44,-1,-1,-1,-1,-1,46,48,50,52,54,56,-1,-1,-1,58,60,-1,62,64,-1,-1,-1,-1,-1,66,68,70,-1,-1,-1,-1,72,-1,-1,-1,74,76,-1,-1,-1,-1,-1,-1,78,-1,-1,-1,-1,80,82,-1,84,-1,86,-1,88,-1,-1,-1,90,-1,92,-1,94,96,-1,-1,-1,-1,-1,-1,-1],"split_conditions":[4.347826E-2,-2.57813E-3,3.529412E-1,1.0462653E-2,3.3458434E-2,2.1142636E-1,2.2353018E-2,3.349229E-2,7.3031164E-3,-1.7168885E-3,-1.1179725E-2,1.9268318E-1,1.4962169E-2,-1.7977786E-1,-4.622337E-2,-9.124169E-3,-3.6292113E-2,2.9844E-3,1E0,3.517414E-2,-3.2537635E-2,6.9867442E-3,8.0371074E-2,-2.7084444E-2,7.6750904E-2,-2.6863474E-1,-1.7818752E-1,-3.9361972E-2,2.164911E-1,4.533601E-2,4.3536252E-3,-1.8297117E-3,-2.3686316E-2,-2.7423834E-5,1.7697968E-2,1.954408E-1,4.213673E-2,4.167629E-2,-1.6054243E-1,1.7594571E-1,-4.6719886E-2,-2.709116E-1,3.868125E-2,1.2892798E-2,-2.3097898E-1,-2.929972E-1,-1.3788506E-1,2.3657252E-1,-5.3999215E-2,-3.3472482E-2,-2.8359227E-2,-1.3776091E-2,1.133571E-1,1.6413313E-1,3.2215604E-1,1.673335E-1,1.3107473E-2,-2.1596748E-1,3.6418606E-2,-1.2326049E-1,4.3536252E-3,-5.7737004E-2,-2.818771E-1,-2.6590192E-1,-3.049777E-1,2.8830534E-1,5.3368792E-2,2.1446249E-1,-6.4400886E-4,-3.449532E-2,-1.9693851E-1,2.966151E-1,3.687762E-1,-9.472341E-3,-4.893177E-3,-2.960368E-1,-1.8406893E-3,2.4818866E-1,-1.4662239E-2,-2.679228E-1,-1.0892303E-2,-2.789594E-1,-1.8535186E-1,-2.994352E-1,1.9640489E-2,2.8242648E-1,8.791715E-3,-2.9254827E-1,-2.9066224E-3,-5.2437477E-2,-3.089138E-1,3.0092528E-1,3.4485054E-1,-3.3524856E-1,-3.0881003E-1,-3.1555638E-1,-3.1301522E-1],"split_indices":[1,264,0,195,52,4,186,177,73,102,143,5,299,0,0,186,89,159,6,177,89,118,0,102,13,0,0,0,0,0,227,261,279,91,234,4,0,0,0,4,65,0,115,214,0,0,0,0,0,89,208,89,0,0,0,0,234,0,0,0,227,131,0,0,0,0,0,0,179,0,0,0,0,163,62,0,118,0,304,0,211,0,0,0,72,0,217,0,244,89,0,0,0,0,0,0,0],"split_type":[0,0,0,0,0,0,0,0,0,0,0,0,0,0,0,0,0,0,0,0,0,0,0,0,0,0,0,0,0,0,0,0,0,0,0,0,0,0,0,0,0,0,0,0,0,0,0,0,0,0,0,0,0,0,0,0,0,0,0,0,0,0,0,0,0,0,0,0,0,0,0,0,0,0,0,0,0,0,0,0,0,0,0,0,0,0,0,0,0,0,0,0,0,0,0,0,0],"sum_hessian":[5.9460425E3,4.520841E3,1.4252019E3,2.781541E3,1.7392998E3,1.25178E3,1.7342183E2,5.2290204E2,2.258639E3,6.3205725E2,1.1072426E3,1.0796249E3,1.7215518E2,9.302372E1,8.039812E1,2.3521436E2,2.876877E2,1.7880607E3,4.7057816E2,3.835761E2,2.4848111E2,9.5200714E2,1.5523544E2,8.2589935E2,2.5372556E2,9.2845116E1,7.931007E1,8.376588E1,1.5144849E2,9.110278E1,1.9658493E2,1.8614679E2,1.601914E3,2.9167188E2,1.7890627E2,2.5487912E2,1.28697E2,9.500379E1,1.5347733E2,2.647964E2,6.8721075E2,1.4633331E2,6.7956604E2,1.6927263E2,8.445293E1,1.0250254E2,9.408239E1,8.543304E1,1.0071375E2,2.979556E2,1.3039584E3,1.6929434E2,1.2237753E2,9.7216675E1,8.168958E1,8.613692E1,1.6874219E2,1.4003728E2,1.2475911E2,9.3994514E1,5.9321625E2,5.8596136E2,9.360466E1,8.093581E1,8.833683E1,1.5275635E2,1.4519923E2,1.502353E2,1.153723E3,8.64287E1,8.286565E1,8.575952E1,8.298267E1,4.3472116E2,1.584951E2,1.4056758E2,4.4539377E2,1.11708145E2,1.0420149E3,9.003428E1,3.446869E2,8.034051E1,7.815459E1,8.7388245E1,3.5800552E2,9.3134384E1,9.488805E2,1.0518674E2,2.3950014E2,2.66908E2,9.1097534E1,9.657008E1,8.523104E2,1.351635E2,1.0433664E2,1.1569113E2,1.5121687E2],"tree_param":{"num_deleted":"0","num_feature":"307","num_nodes":"97","size_leaf_vector":"1"}},{"base_weights":[-7.1847267E-3,2.9986382E-1,-1.0416259E0,-7.2473717E-1,5.483767E-1,-1.1449263E0,-4.6845034E-1,-1.0029731E0,1.1703073E-1,1.010399E0,5.099559E-2,-1.1840245E0,-2.0058286E-1,-1.7286032E-1,-4.0156506E-2,-3.537936E-2,-1.1281635E0,1.2535543E0,2.1588676E-1,7.3546046E-1,-3.875489E-1,-1.1307255E0,-1.2522694E0,-1.2968688E0,-8.760034E-1,8.186205E-1,1.3246636E0,8.061666E-1,-3.404449E-1,-8.579021E-2,1.1104325E0,-6.508764E-1,9.2799467E-1,-1.1756535E0,-2.1066275E-1,-1.284024E0,-2.5809062E-1,-2.4322814E-1,-1.369736E0,-1.21835686E-1,-2.596371E-1,2.7170184E-1,1.1386371E-1,1.3654042E0,2.0926832E-1,7.109286E-2,3.003465E-1,-1.7132176E-1,3.421226E-2,1.2857428E-1,-1.2562428E-1,7.987056E-2,1.3208395E0,3.507147E-2,-8.353385E-1,9.844438E-2,3.3182147E-1,-2.2620921E-1,-1.2207681E0,-2.7776983E-1,-1.299451E0,-3.245638E-1,-1.3157896E0,1.3941404E0,2.5382674E-1,2.2104922E-1,1.442958E0,-9.562299E-1,5.1186685E-3,-2.5122944E-1,-1.2563918E0,-2.922629E-1,-2.9002213E-1,-3.0266055E-1,-2.86637E-1,1.4237597E0,1.2609859E0,3.010705E-1,1.4969708E0,-9.2067964E-2,-1.0708679E0,-2.729704E-1,-2.9047525E-1,1.3993902E0,3.5815734E-1,3.2125115E-1,2.3947506E-1,3.2504117E-1,3.456877E-1,-1.3954443E-1,-1.2266272E0,3.1836936E-1,2.973286E-1,-2.2718088E-1,-3.0485708E-1],"categories":[],"categories_nodes":[],"categories_segments":[],"categories_sizes":[],"default_left":[0,0,0,0,0,0,0,0,0,0,0,0,0,0,0,0,0,0,0,0,0,0,0,0,0,0,0,0,0,0,0,0,0,0,0,0,0,0,0,0,0,0,0,0,0,0,0,0,0,0,0,0,0,0,0,0,0,0,0,0,0,0,0,0,0,0,0,0,0,0,0,0,0,0,0,0,0,0,0,0,0,0,0,0,0,0,0,0,0,0,0,0,0,0,0],"id":3,"left_children":[1,3,5,7,9,11,13,15,-1,17,19,21,-1,-1,-1,-1,23,25,27,29,31,33,35,37,39,41,43,45,47,49,51,53,55,57,-1,59,-1,-1,61,-1,-1,-1,-1,63,-1,-1,-1,-1,-1,-1,-1,-1,65,-1,67,-1,-1,-1,69,-1,71,-1,73,75,-1,-1,77,79,-1,-1,81,-1,-1,-1,-1,83,85,-1,87,-1,89,-1,-1,91,-1,-1,-1,-1,-1,-1,93,-1,-1,-1,-1],"loss_changes":[1.7532344E3,1.0838E3,7.480603E1,2.8834903E2,7.8720044E2,1.0432495E1,1.6926327E1,7.186218E1,0E0,3.4308826E2,4.951761E2,3.3657227E0,0E0,0E0,0E0,0E0,2.5169922E1,4.2054443E1,1.3665912E2,1.983808E2,3.4830853E2,4.436096E0,1.2860718E0,5.444397E0,2.2310226E1,2.3388275E1,1.8579102E1,5.2791077E1,4.486126E1,6.332124E1,7.0144714E1,1.2478482E2,4.5349457E1,3.1384888E0,0E0,2.074585E-1,0E0,0E0,1.1305847E0,0E0,0E0,0E0,0E0,7.054077E0,0E0,0E0,0E0,0E0,0E0,0E0,0E0,0E0,1.4093201E1,0E0,7.075363E1,0E0,0E0,0E0,1.1639099E0,0E0,5.645752E-3,0E0,2.0089722E-1,3.713501E0,0E0,0E0,1.3477173E0,3.735492E1,0E0,0E0,3.7023926E-1,0E0,0E0,0E0,0E0,3.2949219E0,5.697357E0,0E0,3.4744263E-1,0E0,3.4445374E1,0E0,0E0,1.0788574E0,0E0,0E0,0E0,0E0,0E0,0E0,1.0470459E1,0E0,0E0,0E0,0E0],"parents":[2147483647,0,0,1,1,2,2,3,3,4,4,5,5,6,6,7,7,9,9,10,10,11,11,16,16,17,17,18,18,19,19,20,20,21,21,22,22,23,23,24,24,25,25,26,26,27,27,28,28,29,29,30,30,31,31,32,32,33,33,35,35,38,38,43,43,52,52,54,54,58,58,60,60,62,62,63,63,66,66,67,67,70,70,75,75,76,76,78,78,80,80,83,83,90,90],"right_children":[2,4,6,8,10,12,14,16,-1,18,20,22,-1,-1,-1,-1,24,26,28,30,32,34,36,38,40,42,44,46,48,50,52,54,56,58,-1,60,-1,-1,62,-1,-1,-1,-1,64,-1,-1,-1,-1,-1,-1,-1,-1,66,-1,68,-1,-1,-1,70,-1,72,-1,74,76,-1,-1,78,80,-1,-1,82,-1,-1,-1,-1,84,86,-1,88,-1,90,-1,-1,92,-1,-1,-1,-1,-1,-1,94,-1,-1,-1,-1],"split_conditions":[4.347826E-2,-1.2309244E-2,8.3333336E-2,1E0,-2.8828094E-3,2.1142636E-1,3.846154E-1,2.35395E-2,1.1703073E-1,4.307397E-2,3.4557432E-2,5.97659E-3,-2.0058286E-1,-1.7286032E-1,-4.0156506E-2,-3.537936E-2,-2.240373E-3,-9.429749E-3,-3.5591822E-2,2.2454989E-4,1.0426461E-3,2.5951598E-2,1.9268318E-1,6.002405E-3,2.7343802E-2,5.0817165E-3,-2.8561675E-3,1.0763817E-2,1.9818285E-2,1.1195583E-2,-6.350193E-3,1.8701795E-2,3.5648983E-2,-5.6246754E-2,-2.1066275E-1,-2.5044778E-2,-2.5809062E-1,-2.4322814E-1,1.652109E-2,-1.21835686E-1,-2.596371E-1,2.7170184E-1,1.1386371E-1,6.1624683E-2,2.0926832E-1,7.109286E-2,3.003465E-1,-1.7132176E-1,3.421226E-2,1.2857428E-1,-1.2562428E-1,7.987056E-2,3.3080743E-3,3.507147E-2,2.6821885E-2,9.844438E-2,3.3182147E-1,-2.2620921E-1,-5.8611266E-2,-2.7776983E-1,-4.676114E-2,-3.245638E-1,4.0211715E-4,3.797505E-3,2.5382674E-1,2.2104922E-1,-3.1940392E-3,-4.4103406E-2,5.1186685E-3,-2.5122944E-1,7.2619885E-2,-2.922629E-1,-2.9002213E-1,-3.0266055E-1,-2.86637E-1,6.774627E-5,-9.167418E-3,3.010705E-1,-6.6647097E-3,-9.2067964E-2,6.9867442E-3,-2.729704E-1,-2.9047525E-1,-2.9690187E-2,3.5815734E-1,3.2125115E-1,2.3947506E-1,3.2504117E-1,3.456877E-1,-1.3954443E-1,4.07291E-2,3.1836936E-1,2.973286E-1,-2.2718088E-1,-3.0485708E-1],"split_indices":[1,62,0,6,102,4,2,52,0,177,213,302,0,0,0,0,227,186,65,186,143,43,5,113,219,118,85,100,195,102,170,177,13,251,0,34,0,0,264,0,0,0,0,213,0,0,0,0,0,0,0,0,275,0,186,0,0,0,238,0,89,0,145,56,0,0,100,89,0,0,213,0,0,0,0,264,58,0,95,0,118,0,0,143,0,0,0,0,0,0,194,0,0,0,0],"split_type":[0,0,0,0,0,0,0,0,0,0,0,0,0,0,0,0,0,0,0,0,0,0,0,0,0,0,0,0,0,0,0,0,0,0,0,0,0,0,0,0,0,0,0,0,0,0,0,0,0,0,0,0,0,0,0,0,0,0,0,0,0,0,0,0,0,0,0,0,0,0,0,0,0,0,0,0,0,0,0,0,0,0,0,0,0,0,0,0,0,0,0,0,0,0,0],"sum_hessian":[5.519848E3,4.2564307E3,1.2634174E3,8.308587E2,3.4255723E3,1.0704889E3,1.9292856E2,6.7932404E2,1.5153462E2,1.7759108E3,1.6496614E3,9.253386E2,1.4515018E2,9.413715E1,9.87914E1,8.7658646E1,5.916654E2,1.3597637E3,4.161471E2,6.442065E2,1.00545496E3,5.195632E2,4.0577548E2,3.5449426E2,2.3717114E2,1.9107416E2,1.1686896E3,2.0191304E2,2.1423407E2,2.0193513E2,4.4227136E2,8.37763E2,1.6769194E2,4.2021875E2,9.934444E1,3.0783173E2,9.794374E1,9.10709E1,2.6342337E2,1.0922038E2,1.2795075E2,8.409028E1,1.0698388E2,1.0582045E3,1.10485054E2,1.0552019E2,9.639285E1,1.1512904E2,9.910503E1,8.453351E1,1.1740162E2,9.651327E1,3.457581E2,1.5579037E2,6.819726E2,8.909992E1,7.859202E1,8.999183E1,3.302269E2,8.034009E1,2.2749165E2,1.0644477E2,1.569786E2,9.415681E2,1.1663637E2,9.2616615E1,2.5314146E2,5.977669E2,8.4205696E1,8.742282E1,2.4280408E2,1.0001507E2,1.27476585E2,7.866057E1,7.831804E1,7.7023505E2,1.7133307E2,8.960906E1,1.6353241E2,1.0386754E2,4.9389938E2,1.2637508E2,1.1642901E2,6.763415E2,9.38935E1,8.99198E1,8.141327E1,8.274278E1,8.078962E1,1.2746967E2,3.6642972E2,5.162285E2,1.6011298E2,1.422692E2,2.2416052E2],"tree_param":{"num_deleted":"0","num_feature":"307","num_nodes":"95","size_leaf_vector":"1"}},{"base_weights":[-7.0314254E-3,-6.780014E-1,3.675841E-1,-8.462854E-1,-4.320798E-3,8.111207E-1,-5.694427E-2,-2.057559E-1,-9.6888286E-1,5.611545E-1,-2.1411109E-1,9.948028E-1,-1.2518167E-1,-4.2869067E-1,4.5410258E-1,5.80725E-2,-1.7686857E-1,-1.1090413E0,-7.87573E-1,2.2805305E-1,-1.0451088E-2,1.0921266E0,-7.7884845E-2,4.7422547E-2,-1.3927847E-1,2.4312246E-1,-6.53682E-1,1.1437545E0,9.521404E-2,-1.9222142E-1,-1.1816405E0,-5.829502E-1,-1.083675E0,1.10106215E-1,1.1740025E0,-5.4724813E-2,1.3063398E-1,-9.120478E-1,-2.6762524E-1,2.949154E-1,1.9303E-1,4.6350855E-1,-2.6121202E-1,-2.2142E-1,-1.2199131E0,-1.5050439E-2,-9.181023E-1,-2.683459E-1,-2.1437962E-1,1.2354077E0,8.576801E-1,-1.06657E0,-1.0738893E-1,-1.7865716E-1,1.04400896E-1,1.0198084E-2,1.7058964E-1,-1.22306906E-1,6.45588E-2,-1.1327267E0,-1.3179675E0,-1.4484985E-1,-2.6350242E-1,1.2720063E0,2.1015102E-1,1.2197061E-1,2.7140903E-1,-1.217084E0,-1.8707377E-1,1.574103E-1,-1.0479716E-1,-2.735417E-1,-2.2040065E-1,-3.08525E-1,-2.7326936E-1,2.3672567E-1,1.2963822E0,-3.0705452E-1,-2.2516543E-1,2.631122E-1,1.3247002E0,3.007371E-1,2.7696183E-1],"categories":[],"categories_nodes":[],"categories_segments":[],"categories_sizes":[],"default_left":[0,0,0,0,0,0,0,0,0,0,0,0,0,0,0,0,0,0,0,0,0,0,0,0,0,0,0,0,0,0,0,0,0,0,0,0,0,0,0,0,0,0,0,0,0,0,0,0,0,0,0,0,0,0,0,0,0,0,0,0,0,0,0,0,0,0,0,0,0,0,0,0,0,0,0,0,0,0,0,0,0,0,0],"id":4,"left_children":[1,3,5,7,9,11,13,15,17,19,-1,21,23,25,27,-1,-1,29,31,-1,-1,33,-1,-1,-1,35,37,39,41,-1,43,45,47,-1,49,-1,-1,51,53,-1,-1,55,57,-1,59,-1,61,-1,-1,63,65,67,-1,-1,69,-1,-1,-1,-1,71,73,-1,-1,75,-1,-1,-1,77,-1,-1,-1,-1,-1,-1,-1,-1,79,-1,-1,-1,81,-1,-1],"loss_changes":[1.2758163E3,2.0616852E2,6.133086E2,1.14263306E2,1.956213E2,2.739557E2,3.16175E2,6.3492218E1,3.1036255E1,6.3360176E1,0E0,1.7400537E2,4.3725983E1,1.4562502E2,1.7345923E2,0E0,0E0,1.25372925E1,3.2263E1,0E0,0E0,6.104492E1,0E0,0E0,0E0,4.0086136E1,7.198779E1,1.1704437E1,6.0508625E1,0E0,3.9440308E0,5.4428734E1,3.1514893E0,0E0,2.1224243E1,0E0,0E0,2.8896698E1,5.706935E1,0E0,0E0,2.8258911E1,3.6675663E1,0E0,3.8104858E0,0E0,1.3386398E1,0E0,0E0,9.946533E0,1.969867E1,1.1086365E1,0E0,0E0,5.8246178E1,0E0,0E0,0E0,0E0,3.110199E0,1.2240295E0,0E0,0E0,4.2683105E0,0E0,0E0,0E0,6.2898254E0,0E0,0E0,0E0,0E0,0E0,0E0,0E0,0E0,2.517212E0,0E0,0E0,0E0,9.499512E-1,0E0,0E0],"parents":[2147483647,0,0,1,1,2,2,3,3,4,4,5,5,6,6,7,7,8,8,9,9,11,11,12,12,13,13,14,14,17,17,18,18,21,21,25,25,26,26,27,27,28,28,30,30,31,31,32,32,34,34,37,37,38,38,41,41,42,42,44,44,46,46,49,49,50,50,51,51,54,54,59,59,60,60,63,63,67,67,76,76,80,80],"right_children":[2,4,6,8,10,12,14,16,18,20,-1,22,24,26,28,-1,-1,30,32,-1,-1,34,-1,-1,-1,36,38,40,42,-1,44,46,48,-1,50,-1,-1,52,54,-1,-1,56,58,-1,60,-1,62,-1,-1,64,66,68,-1,-1,70,-1,-1,-1,-1,72,74,-1,-1,76,-1,-1,-1,78,-1,-1,-1,-1,-1,-1,-1,-1,80,-1,-1,-1,82,-1,-1],"split_conditions":[1.7375438E-1,1E0,3.517414E-2,1.3946054E-2,4.347826E-2,1.347666E-2,1.2884414E-2,1.8689916E-2,-5.7647177E-3,-2.4251802E-2,-2.1411109E-1,6.666667E-2,1.250621E-2,-1.6337978E-2,2.941775E-2,5.80725E-2,-1.7686857E-1,-2.023491E-2,4.347826E-2,2.2805305E-1,-1.0451088E-2,-1.3682636E-2,-7.7884845E-2,4.7422547E-2,-1.3927847E-1,-6.975122E-3,3.5724244E-3,-2.1740315E-2,-1.175118E-4,-1.9222142E-1,-1.423323E-2,3.470976E-2,4.533505E-2,1.10106215E-1,-7.6990895E-4,-5.4724813E-2,1.3063398E-1,-1.1962499E-2,1.49443075E-2,2.949154E-1,1.9303E-1,2.0138682E-3,1E0,-2.2142E-1,8.590786E-3,-1.5050439E-2,-1.1859548E-2,-2.683459E-1,-2.1437962E-1,-8.600004E-3,1.0932007E-2,-1.0568486E-2,-1.0738893E-1,-1.7865716E-1,-4.0528346E-3,1.0198084E-2,1.7058964E-1,-1.22306906E-1,6.45588E-2,1.969761E-2,2.1052632E-1,-1.4484985E-1,-2.6350242E-1,-2.3556162E-2,2.1015102E-1,1.2197061E-1,2.7140903E-1,-9.418011E-3,-1.8707377E-1,1.574103E-1,-1.0479716E-1,-2.735417E-1,-2.2040065E-1,-3.08525E-1,-2.7326936E-1,2.3672567E-1,-1.2359327E-2,-3.0705452E-1,-2.2516543E-1,2.631122E-1,-4.6230676E-3,3.007371E-1,2.7696183E-1],"split_indices":[4,6,177,177,1,102,186,106,147,65,0,1,302,102,213,0,0,261,1,0,0,186,0,0,0,192,291,298,247,0,172,52,13,0,200,0,0,143,195,0,0,107,6,0,59,0,232,0,0,85,186,250,0,0,253,0,0,0,0,222,1,0,0,115,0,0,0,160,0,0,0,0,0,0,0,0,27,0,0,0,99,0,0],"split_type":[0,0,0,0,0,0,0,0,0,0,0,0,0,0,0,0,0,0,0,0,0,0,0,0,0,0,0,0,0,0,0,0,0,0,0,0,0,0,0,0,0,0,0,0,0,0,0,0,0,0,0,0,0,0,0,0,0,0,0,0,0,0,0,0,0,0,0,0,0,0,0,0,0,0,0,0,0,0,0,0,0,0,0],"sum_hessian":[5.075739E3,1.818551E3,3.257188E3,1.4550762E3,3.634749E2,1.5929323E3,1.6642556E3,2.3376006E2,1.221316E3,2.2800754E2,1.3546739E2,1.3316848E3,2.612475E2,9.6343353E2,7.0082214E2,1.3013283E2,1.0362723E2,6.888288E2,5.3248724E2,1.3012894E2,9.78786E1,1.2416759E3,9.000887E1,1.5566249E2,1.0558501E2,2.417073E2,7.2172626E2,2.3987346E2,4.6094867E2,1.5467941E2,5.341494E2,3.148846E2,2.1760262E2,1.4899236E2,1.0926836E3,9.93484E1,1.423589E2,4.3236734E2,2.893589E2,1.4858188E2,9.129157E1,2.2669995E2,2.3424872E2,8.842495E1,4.4572446E2,1.240271E2,1.9085751E2,1.14133026E2,1.0346959E2,9.150519E2,1.7763168E2,3.185585E2,1.13808846E2,1.1932255E2,1.7003633E2,9.4400055E1,1.322999E2,1.5425931E2,7.998942E1,2.3593736E2,2.0978711E2,9.312932E1,9.7728195E1,8.146656E2,1.0038629E2,9.430214E1,8.332954E1,1.9295369E2,1.2560482E2,8.3120476E1,8.6915855E1,1.4771027E2,8.822709E1,1.3022356E2,7.956355E1,8.297865E1,7.3168695E2,1.116785E2,8.127519E1,1.3830714E2,5.933798E2,4.916678E2,1.01712E2],"tree_param":{"num_deleted":"0","num_feature":"307","num_nodes":"83","size_leaf_vector":"1"}},{"base_weights":[-6.0265213E-3,2.2986338E-1,-8.722528E-1,4.5777774E-1,-4.696064E-1,-9.9315417E-1,-3.1167358E-1,6.000148E-1,-6.6779786E-1,2.127353E-1,-7.854995E-1,-1.6652115E-1,-1.0415858E0,-7.973174E-3,-1.3088648E-1,9.837028E-1,3.4701833E-1,-2.7211288E-1,-1.404897E-1,1.840475E-1,-9.7868994E-2,2.0744577E-2,-9.453584E-1,-1.0999392E0,-9.290974E-1,3.7507066E-1,1.1189154E0,7.334783E-1,1.1943537E-2,-1.5218954E-1,8.689036E-2,5.904243E-2,-1.21266544E-1,-9.363662E-2,-1.0680445E0,-1.0455596E0,-1.1672417E0,-1.7853688E-1,-2.3768255E-1,2.2402084E-1,-5.000756E-2,1.5306295E-1,1.2097831E0,9.2004037E-1,9.668196E-3,1.9036573E-1,-1.7927681E-1,-1.1559471E0,-1.6679436E-1,-2.5429592E-1,-2.0552687E-1,-2.5458464E-1,-2.6595983E-1,1.2530599E0,2.1420713E-1,4.9859896E-1,1.1088387E0,-3.29269E-1,1.7801999E-1,-1.2260213E0,-2.1411991E-1,2.382422E-1,1.2854828E0,1.8329556E-1,3.6581814E-2,1.2097882E0,1.9880043E-1,-6.6686857E-1,8.652832E-2,-1.2930459E0,-2.4458459E-1,1.2531358E0,3.2209936E-1,1.2665205E0,2.4246378E-1,-8.996056E-1,-5.5426862E-2,-7.373929E-2,1.0970603E-1,-2.7453285E-1,-3.035269E-1,2.986912E-1,2.754865E-1,2.987289E-1,2.6854116E-1,-2.798151E-1,-1.270788E-1],"categories":[],"categories_nodes":[],"categories_segments":[],"categories_sizes":[],"default_left":[0,0,0,0,0,0,0,0,0,0,0,0,0,0,0,0,0,0,0,0,0,0,0,0,0,0,0,0,0,0,0,0,0,0,0,0,0,0,0,0,0,0,0,0,0,0,0,0,0,0,0,0,0,0,0,0,0,0,0,0,0,0,0,0,0,0,0,0,0,0,0,0,0,0,0,0,0,0,0,0,0,0,0,0,0,0,0],"id":5,"left_children":[1,3,5,7,9,11,13,15,17,19,21,-1,23,-1,-1,25,27,-1,29,-1,31,-1,33,35,37,39,41,43,45,-1,-1,-1,-1,-1,47,49,51,-1,-1,-1,-1,-1,53,55,-1,-1,57,59,-1,-1,-1,-1,-1,61,-1,63,65,67,-1,69,-1,-1,71,-1,-1,73,-1,75,77,79,-1,81,-1,83,-1,85,-1,-1,-1,-1,-1,-1,-1,-1,-1,-1,-1],"loss_changes":[9.605247E2,5.889962E2,6.818945E1,4.461372E2,1.9571584E2,1.0003906E1,1.3441929E1,2.4015588E2,9.022255E1,5.4361202E1,8.712631E1,0E0,4.5496826E0,0E0,0E0,8.090277E1,1.9306386E2,0E0,4.5363094E1,0E0,3.0519543E1,0E0,3.3964203E1,1.6702881E0,4.128372E0,6.685896E1,3.1827026E1,8.916708E1,1.27978065E2,0E0,0E0,0E0,0E0,0E0,1.2103241E1,2.9023132E0,1.2637329E-1,0E0,0E0,0E0,0E0,0E0,7.2943726E0,4.33692E1,0E0,0E0,9.500891E1,4.6893005E0,0E0,0E0,0E0,0E0,0E0,3.4872437E0,0E0,1.8084187E1,8.4028015E0,7.9093155E1,0E0,2.2245789E0,0E0,0E0,2.3984985E0,0E0,0E0,1.8635559E0,0E0,3.0351059E1,4.234464E1,6.9137573E-1,0E0,7.423096E-1,0E0,8.1170654E-1,0E0,2.3239914E1,0E0,0E0,0E0,0E0,0E0,0E0,0E0,0E0,0E0,0E0,0E0],"parents":[2147483647,0,0,1,1,2,2,3,3,4,4,5,5,6,6,7,7,8,8,9,9,10,10,12,12,15,15,16,16,18,18,20,20,22,22,23,23,24,24,25,25,26,26,27,27,28,28,34,34,35,35,36,36,42,42,43,43,46,46,47,47,53,53,55,55,56,56,57,57,59,59,62,62,65,65,67,67,68,68,69,69,71,71,73,73,75,75],"right_children":[2,4,6,8,10,12,14,16,18,20,22,-1,24,-1,-1,26,28,-1,30,-1,32,-1,34,36,38,40,42,44,46,-1,-1,-1,-1,-1,48,50,52,-1,-1,-1,-1,-1,54,56,-1,-1,58,60,-1,-1,-1,-1,-1,62,-1,64,66,68,-1,70,-1,-1,72,-1,-1,74,-1,76,78,80,-1,82,-1,84,-1,86,-1,-1,-1,-1,-1,-1,-1,-1,-1,-1,-1],"split_conditions":[4.347826E-2,4.2823534E-2,8.3333336E-2,4.2497635E-2,-1.2322624E-2,-2.8705556E-2,4.9987566E-2,-9.167418E-3,1.6113426E-1,-1.238465E-2,-3.7812937E-2,-1.6652115E-1,1.9268318E-1,-7.973174E-3,-1.3088648E-1,7.676314E-3,2.9029798E-2,-2.7211288E-1,2.0746093E-3,1.840475E-1,-1.5658082E-2,2.0744577E-2,3.967228E-2,5.284028E-3,2.868488E-3,-2.942538E-2,-2.9439265E-3,1.3866537E-2,-2.9378643E-2,-1.5218954E-1,8.689036E-2,5.904243E-2,-1.21266544E-1,-9.363662E-2,1.4093737E-2,-5.651593E-3,-1.5073457E-2,-1.7853688E-1,-2.3768255E-1,2.2402084E-1,-5.000756E-2,1.5306295E-1,1.6778683E-2,-1.8904811E-3,9.668196E-3,1.9036573E-1,6.0048E-3,2.8493369E-2,-1.6679436E-1,-2.5429592E-1,-2.0552687E-1,-2.5458464E-1,-2.6595983E-1,-9.80472E-3,2.1420713E-1,3.1527295E-3,5.324703E-3,-7.0695695E-3,1.7801999E-1,-1.4653504E-3,-2.1411991E-1,2.382422E-1,-2.0232059E-3,1.8329556E-1,3.6581814E-2,-2.0218613E-2,1.9880043E-1,7.433304E-3,5.2319467E-3,1.7141233E-1,-2.4458459E-1,-4.79487E-3,3.2209936E-1,6.298188E-3,2.4246378E-1,1.4464398E-2,-5.5426862E-2,-7.373929E-2,1.0970603E-1,-2.7453285E-1,-3.035269E-1,2.986912E-1,2.754865E-1,2.987289E-1,2.6854116E-1,-2.798151E-1,-1.270788E-1],"split_indices":[1,194,0,302,264,102,177,58,4,270,89,0,5,0,0,159,177,0,291,0,89,0,213,302,206,65,291,102,102,0,0,0,0,0,100,115,207,0,0,0,0,0,116,186,0,0,143,195,0,0,0,0,0,209,0,113,17,27,0,123,0,0,264,0,0,85,0,259,186,4,0,91,0,67,0,195,0,0,0,0,0,0,0,0,0,0,0],"split_type":[0,0,0,0,0,0,0,0,0,0,0,0,0,0,0,0,0,0,0,0,0,0,0,0,0,0,0,0,0,0,0,0,0,0,0,0,0,0,0,0,0,0,0,0,0,0,0,0,0,0,0,0,0,0,0,0,0,0,0,0,0,0,0,0,0,0,0,0,0,0,0,0,0,0,0,0,0,0,0,0,0,0,0,0,0,0,0],"sum_hessian":[4.7007573E3,3.6946372E3,1.00612E3,2.7866414E3,9.079958E2,8.276245E2,1.7849548E2,2.4740056E3,3.1263577E2,2.8733682E2,6.2065894E2,1.3450307E2,6.931214E2,8.871285E1,8.978264E1,9.830846E2,1.490921E3,1.5341223E2,1.5922356E2,9.70397E1,1.9029712E2,9.558649E1,5.250725E2,4.5637604E2,2.3674538E2,1.7870065E2,8.043839E2,6.9237146E2,7.985496E2,7.882096E1,8.040259E1,1.04852554E2,8.5444565E1,9.911794E1,4.2595453E2,2.5242229E2,2.0395375E2,1.1853977E2,1.18205605E2,8.738682E1,9.1313835E1,1.3887909E2,6.655048E2,5.4506287E2,1.473086E2,1.4834824E2,6.5020135E2,3.3488705E2,9.106749E1,1.4814583E2,1.04276474E2,8.1765495E1,1.2218825E2,5.6838464E2,9.712022E1,1.6863365E2,3.7642923E2,5.6345E2,8.675134E1,2.4794014E2,8.6946915E1,8.3144554E1,4.8524005E2,8.629463E1,8.233902E1,2.584427E2,1.17986534E2,3.1096625E2,2.5248376E2,1.6521729E2,8.272285E1,4.004662E2,8.477387E1,1.7868549E2,7.97572E1,1.9998203E2,1.1098421E2,1.2432281E2,1.2816096E2,7.951448E1,8.570281E1,8.8855354E1,3.1161084E2,8.932842E1,8.935706E1,9.739385E1,1.0258818E2],"tree_param":{"num_deleted":"0","num_feature":"307","num_nodes":"87","size_leaf_vector":"1"}},{"base_weights":[-5.781262E-3,1.944838E-1,-7.8658885E-1,-2.333454E-1,5.100949E-1,-9.1706836E-1,-2.5124484E-1,7.5609624E-1,-3.9508012E-1,-4.071829E-1,6.475798E-1,-9.712762E-1,-1.4127351E-1,-6.5042437E-3,-1.1527285E-1,6.898164E-2,2.3368889E-1,2.0116242E-2,-6.377146E-1,7.846885E-2,-8.0635864E-1,9.129383E-1,2.9931968E-1,-8.9236194E-1,-1.0725119E0,-3.3711326E-1,4.0286505E-1,-7.449729E-1,5.7067197E-2,-9.6047066E-2,-2.7383125E-1,1.0238147E0,6.660261E-2,-2.3718451E-1,6.1488175E-1,-7.954322E-1,-2.3144743E-1,-1.134496E0,-2.168869E-1,2.340027E-2,-1.4853542E-1,1.5656812E-1,-2.224116E-3,-9.254396E-1,-4.1199476E-1,1.1236304E0,7.4068886E-1,-5.4316324E-1,4.664822E-2,-4.6790233E-3,8.3740705E-1,-2.1118507E-1,-1.3931184E-1,-2.5769138E-1,-2.5040805E-1,-1.3228488E-1,-1.0032057E0,-1.6703477E-2,-2.1383864E-1,1.1621892E0,1.9656387E-1,2.4643292E-1,1.1595895E-1,-2.9847503E-2,-2.1200961E-1,1.0906794E0,9.845246E-2,-1.5502271E-1,-1.1231526E0,1.2150236E0,1.0551246E0,2.725508E-1,2.0281747E-1,-1.2131004E0,-2.0915145E-1,2.916468E-1,1.185364E0,2.0247619E-1,2.6491454E-1,-2.9348508E-1,-2.4817543E-1,2.727546E-1,2.500324E-1],"categories":[],"categories_nodes":[],"categories_segments":[],"categories_sizes":[],"default_left":[0,0,0,0,0,0,0,0,0,0,0,0,0,0,0,0,0,0,0,0,0,0,0,0,0,0,0,0,0,0,0,0,0,0,0,0,0,0,0,0,0,0,0,0,0,0,0,0,0,0,0,0,0,0,0,0,0,0,0,0,0,0,0,0,0,0,0,0,0,0,0,0,0,0,0,0,0,0,0,0,0,0,0],"id":6,"left_children":[1,3,5,7,9,11,13,15,17,19,21,23,-1,-1,-1,-1,-1,25,27,-1,29,31,33,35,37,39,41,43,-1,-1,-1,45,-1,47,49,51,-1,53,-1,-1,-1,-1,-1,55,57,59,61,63,-1,-1,65,-1,-1,-1,-1,-1,67,-1,-1,69,-1,-1,-1,-1,-1,71,-1,-1,73,75,77,-1,-1,79,-1,-1,81,-1,-1,-1,-1,-1,-1],"loss_changes":[6.768541E2,4.651697E2,6.171991E1,2.3403906E2,2.5001672E2,1.1023132E1,1.0137771E1,2.6460579E1,1.2663373E2,7.814526E1,1.593294E2,4.7719116E0,0E0,0E0,0E0,0E0,0E0,6.33932E1,7.595233E1,0E0,2.6600647E1,6.678143E1,1.2622681E2,4.5918274E0,1.6872559E0,3.454035E1,2.7373451E1,4.2560883E1,0E0,0E0,0E0,2.343219E1,0E0,3.7638283E1,6.6416565E1,5.0911407E0,0E0,4.336548E-2,0E0,0E0,0E0,0E0,0E0,1.1956879E1,4.559873E1,5.812622E0,1.7328445E1,2.7075222E1,0E0,0E0,3.503409E1,0E0,0E0,0E0,0E0,0E0,1.3903076E1,0E0,0E0,2.9976807E0,0E0,0E0,0E0,0E0,0E0,4.9673157E0,0E0,0E0,4.578003E0,9.1864014E-1,3.379364E0,0E0,0E0,1.8632202E0,0E0,0E0,5.9439087E-1,0E0,0E0,0E0,0E0,0E0,0E0],"parents":[2147483647,0,0,1,1,2,2,3,3,4,4,5,5,6,6,7,7,8,8,9,9,10,10,11,11,17,17,18,18,20,20,21,21,22,22,23,23,24,24,25,25,26,26,27,27,31,31,33,33,34,34,35,35,37,37,43,43,44,44,45,45,46,46,47,47,50,50,56,56,59,59,65,65,68,68,69,69,70,70,73,73,76,76],"right_children":[2,4,6,8,10,12,14,16,18,20,22,24,-1,-1,-1,-1,-1,26,28,-1,30,32,34,36,38,40,42,44,-1,-1,-1,46,-1,48,50,52,-1,54,-1,-1,-1,-1,-1,56,58,60,62,64,-1,-1,66,-1,-1,-1,-1,-1,68,-1,-1,70,-1,-1,-1,-1,-1,72,-1,-1,74,76,78,-1,-1,80,-1,-1,82,-1,-1,-1,-1,-1,-1],"split_conditions":[4.347826E-2,-6.4678136E-3,8.3333336E-2,-6.0177803E-2,-1.4027975E-2,2.1142636E-1,-2.4984704E-2,-5.0290246E-3,-1.02993725E-2,8.269586E-3,-1.7168885E-3,-4.9348347E-2,-1.4127351E-1,-6.5042437E-3,-1.1527285E-1,6.898164E-2,2.3368889E-1,5.5141747E-4,3.1688586E-2,7.846885E-2,-8.699571E-3,5.240566E-2,4.5560906E-3,5.97659E-3,8.34261E-3,2.0862427E-3,4.8620827E-2,5.7529337E-3,5.7067197E-2,-9.6047066E-2,-2.7383125E-1,5.531095E-3,6.660261E-2,7.315828E-3,-3.1867787E-2,6.481082E-3,-2.3144743E-1,-1.8444598E-2,-2.168869E-1,2.340027E-2,-1.4853542E-1,1.5656812E-1,-2.224116E-3,-1.7610196E-2,4.4400338E-2,5.7091527E-2,-1.2825138E-2,3.120439E-2,4.664822E-2,-4.6790233E-3,-5.799949E-3,-2.1118507E-1,-1.3931184E-1,-2.5769138E-1,-2.5040805E-1,-1.3228488E-1,3.719639E-2,-1.6703477E-2,-2.1383864E-1,-1.3479921E-3,1.9656387E-1,2.4643292E-1,1.1595895E-1,-2.9847503E-2,-2.1200961E-1,-1.0021186E-2,9.845246E-2,-1.5502271E-1,2.1593529E-3,3.9620535E-3,8.562493E-3,2.725508E-1,2.0281747E-1,-1.3170675E-3,-2.0915145E-1,2.916468E-1,3.3828475E-2,2.0247619E-1,2.6491454E-1,-2.9348508E-1,-2.4817543E-1,2.727546E-1,2.500324E-1],"split_indices":[1,91,0,65,62,4,102,192,264,189,102,89,0,0,0,0,0,291,100,0,197,177,179,302,136,302,213,291,0,0,0,17,0,227,208,239,0,184,0,0,0,0,0,266,194,213,25,194,0,0,58,0,0,0,0,0,213,0,0,281,0,0,0,0,0,71,0,0,175,189,129,0,0,171,0,0,222,0,0,0,0,0,0],"split_type":[0,0,0,0,0,0,0,0,0,0,0,0,0,0,0,0,0,0,0,0,0,0,0,0,0,0,0,0,0,0,0,0,0,0,0,0,0,0,0,0,0,0,0,0,0,0,0,0,0,0,0,0,0,0,0,0,0,0,0,0,0,0,0,0,0,0,0,0,0,0,0,0,0,0,0,0,0,0,0,0,0,0,0],"sum_hessian":[4.3285845E3,3.4449963E3,8.8358826E2,1.4624967E3,1.9824995E3,7.10434E2,1.7315422E2,2.0547371E2,1.2570231E3,2.584124E2,1.7240872E3,5.973123E2,1.1312174E2,9.393699E1,7.9217224E1,8.029452E1,1.25179184E2,4.636407E2,7.933823E2,8.917395E1,1.6923848E2,9.7850806E2,7.4557904E2,3.356609E2,2.616514E2,2.3981503E2,2.2382565E2,7.082683E2,8.511399E1,8.876786E1,8.047062E1,8.291525E2,1.4935553E2,2.761246E2,4.6945444E2,1.9899316E2,1.3666774E2,1.6396239E2,9.768901E1,1.0187602E2,1.3793901E2,1.3030486E2,9.3520805E1,4.5932462E2,2.4894371E2,6.1302966E2,2.1612288E2,1.6369308E2,1.12431526E2,1.2171203E2,3.4774243E2,1.0748606E2,9.150711E1,8.235287E1,8.160951E1,8.659221E1,3.7273242E2,1.5352443E2,9.541929E1,5.299333E2,8.3096344E1,8.2682434E1,1.3344044E2,8.120776E1,8.248533E1,2.1246407E2,1.3527835E2,1.0375013E2,2.6898227E2,3.5483066E2,1.7510266E2,1.2624813E2,8.621593E1,1.8231529E2,8.6666985E1,8.999419E1,2.6483646E2,8.027129E1,9.483137E1,9.453421E1,8.778108E1,1.7979071E2,8.504575E1],"tree_param":{"num_deleted":"0","num_feature":"307","num_nodes":"83","size_leaf_vector":"1"}},{"base_weights":[-5.033392E-3,-6.31777E-1,2.0736548E-1,-7.6210153E-1,-9.7721346E-2,5.389854E-1,-1.08204484E-1,-9.41036E-1,-5.4402155E-1,9.090881E-2,-1.0132311E-1,8.0484265E-1,5.1637895E-2,-3.1343073E-1,4.3723217E-1,-7.7168775E-1,-1.060092E0,-3.60709E-1,-2.296435E-1,8.789081E-1,3.8211786E-3,-1.5421662E-1,4.9079564E-1,-4.2515063E-1,9.3570545E-2,6.3135624E-1,-7.618039E-2,-1.219818E-1,-2.3172998E-1,-1.1381775E0,-2.0768344E-1,-6.312087E-2,-1.9890256E-1,9.526439E-1,5.9720274E-2,-3.7808752E-1,4.865356E-2,1.8915135E-1,3.1157766E-2,-7.277E-1,-1.0986177E-1,9.696484E-1,4.542262E-2,-2.2909376E-1,-2.8246272E-1,6.6802405E-2,-1.07815966E-1,1.3127622E-1,1.0378894E0,2.6530828E-3,-1.3825205E-1,-4.613019E-2,-8.4965235E-1,4.4636193E-1,-4.0002418E-1,2.7206254E-1,1.5220155E-1,1.1033547E0,1.8158598E-1,-1.0572429E0,-6.519952E-1,2.1766041E-1,-9.705107E-3,-6.701109E-1,1.5320439E-2,1.1446135E0,2.0870161E-1,-1.858692E-1,-2.709468E-1,-2.0634945E-1,-9.259819E-2,-2.071971E-1,-8.908408E-2,1.1779854E0,2.3921378E-1,2.7682295E-1,2.5766072E-1],"categories":[],"categories_nodes":[],"categories_segments":[],"categories_sizes":[],"default_left":[0,0,0,0,0,0,0,0,0,0,0,0,0,0,0,0,0,0,0,0,0,0,0,0,0,0,0,0,0,0,0,0,0,0,0,0,0,0,0,0,0,0,0,0,0,0,0,0,0,0,0,0,0,0,0,0,0,0,0,0,0,0,0,0,0,0,0,0,0,0,0,0,0,0,0,0,0],"id":7,"left_children":[1,3,5,7,9,11,13,15,17,-1,-1,19,21,23,25,27,29,31,-1,33,-1,35,37,39,-1,41,-1,-1,-1,43,-1,45,-1,47,-1,49,-1,-1,-1,51,53,55,-1,-1,-1,-1,-1,-1,57,-1,-1,-1,59,61,63,-1,-1,65,-1,67,69,-1,-1,71,-1,73,-1,-1,-1,-1,-1,-1,-1,75,-1,-1,-1],"loss_changes":[5.328495E2,7.051666E1,3.1286206E2,3.1780334E1,3.5507156E1,1.8887213E2,1.7147574E2,9.019684E0,3.2393005E1,0E0,0E0,5.5033447E1,4.6515423E1,9.093377E1,6.320334E1,1.1027969E1,2.722168E0,4.1727245E1,0E0,3.8920532E1,0E0,2.9133484E1,2.0433151E1,9.2105194E1,0E0,4.8582092E1,0E0,0E0,0E0,2.3454895E0,0E0,2.5694319E1,0E0,2.4037048E1,0E0,2.0393131E1,0E0,0E0,0E0,3.1349762E1,7.631174E1,1.3318161E1,0E0,0E0,0E0,0E0,0E0,0E0,9.278687E0,0E0,0E0,0E0,1.6387177E1,4.1718838E1,3.931286E1,0E0,0E0,3.427185E0,0E0,6.757141E0,1.3146919E1,0E0,0E0,1.3691544E1,0E0,9.9627686E-1,0E0,0E0,0E0,0E0,0E0,0E0,0E0,4.3362427E-1,0E0,0E0,0E0],"parents":[2147483647,0,0,1,1,2,2,3,3,4,4,5,5,6,6,7,7,8,8,11,11,12,12,13,13,14,14,15,15,16,16,17,17,19,19,21,21,22,22,23,23,25,25,29,29,31,31,33,33,35,35,39,39,40,40,41,41,48,48,52,52,53,53,54,54,57,57,59,59,60,60,63,63,65,65,73,73],"right_children":[2,4,6,8,10,12,14,16,18,-1,-1,20,22,24,26,28,30,32,-1,34,-1,36,38,40,-1,42,-1,-1,-1,44,-1,46,-1,48,-1,50,-1,-1,-1,52,54,56,-1,-1,-1,-1,-1,-1,58,-1,-1,-1,60,62,64,-1,-1,66,-1,68,70,-1,-1,72,-1,74,-1,-1,-1,-1,-1,-1,-1,76,-1,-1,-1],"split_conditions":[1.546127E-1,1E0,3.770306E-2,-5.1564584E-3,-1.4621444E-2,8.766377E-4,2.1976752E-2,-7.226867E-4,3.462268E-2,9.090881E-2,-1.0132311E-1,6.666667E-2,1.0689483E-2,1.0426461E-3,7.4074075E-2,2.3655416E-2,5.8309305E-3,4.347826E-2,-2.296435E-1,-1.5979989E-3,3.8211786E-3,4.34552E-3,-1.9351196E-2,2.0746093E-3,9.3570545E-2,-4.8113347E-4,-7.618039E-2,-1.219818E-1,-2.3172998E-1,-2.791836E-2,-2.0768344E-1,3.120439E-2,-1.9890256E-1,-8.766696E-3,5.9720274E-2,1.5357742E-2,4.865356E-2,1.8915135E-1,3.1157766E-2,-1.4575991E-2,3.7882864E-2,3.7501078E-2,4.542262E-2,-2.2909376E-1,-2.8246272E-1,6.6802405E-2,-1.07815966E-1,1.3127622E-1,8.094954E-3,2.6530828E-3,-1.3825205E-1,-4.613019E-2,4.7562574E-3,-8.135465E-3,1.0763817E-2,2.7206254E-1,1.5220155E-1,1.3517615E-2,1.8158598E-1,-1.2926997E-2,2.4733697E-3,2.1766041E-1,-9.705107E-3,1.8831668E-2,1.5320439E-2,-4.8174988E-4,2.0870161E-1,-1.858692E-1,-2.709468E-1,-2.0634945E-1,-9.259819E-2,-2.071971E-1,-8.908408E-2,-1.16169425E-2,2.3921378E-1,2.7682295E-1,2.5766072E-1],"split_indices":[4,6,177,147,199,102,186,272,302,0,0,1,186,143,1,113,72,1,0,85,0,291,264,291,0,142,0,0,0,112,0,194,0,186,0,177,0,0,0,211,213,213,0,0,0,0,0,0,113,0,0,0,179,58,100,0,0,92,0,77,43,0,0,195,0,281,0,0,0,0,0,0,0,281,0,0,0],"split_type":[0,0,0,0,0,0,0,0,0,0,0,0,0,0,0,0,0,0,0,0,0,0,0,0,0,0,0,0,0,0,0,0,0,0,0,0,0,0,0,0,0,0,0,0,0,0,0,0,0,0,0,0,0,0,0,0,0,0,0,0,0,0,0,0,0,0,0,0,0,0,0,0,0,0,0,0,0],"sum_hessian":[4.0027866E3,1.0131621E3,2.9896245E3,8.1442065E2,1.9874147E2,1.4577417E3,1.5318827E3,4.473612E2,3.6705945E2,8.212881E1,1.1661266E2,9.432054E2,5.145363E2,1.1130762E3,4.1880655E2,1.84675E2,2.626862E2,2.6583563E2,1.0122381E2,8.62148E2,8.105742E1,3.5032297E2,1.6421335E2,9.655599E2,1.4751631E2,3.3512357E2,8.368299E1,9.913441E1,8.5540596E1,1.6537943E2,9.730677E1,1.6995108E2,9.588456E1,7.6947485E2,9.267313E1,2.1858862E2,1.3173434E2,8.185445E1,8.23589E1,4.927346E2,4.7282532E2,1.8727968E2,1.4784389E2,8.54401E1,7.9939316E1,9.117634E1,7.8774734E1,1.4521825E2,6.242566E2,8.312074E1,1.3546786E2,9.335627E1,3.993783E2,1.6209639E2,3.107289E2,1.0147903E2,8.5800644E1,4.8454388E2,1.3971274E2,1.9479442E2,2.045839E2,7.818468E1,8.391172E1,1.9709149E2,1.1363742E2,3.9054788E2,9.3996E1,7.826142E1,1.1653299E2,9.6065674E1,1.0851823E2,1.0176341E2,9.532808E1,2.7185892E2,1.1868897E2,8.7177635E1,1.8468126E2],"tree_param":{"num_deleted":"0","num_feature":"307","num_nodes":"77","size_leaf_vector":"1"}},{"base_weights":[-3.965069E-3,1.5173656E-1,-6.5682125E-1,4.594428E-1,-1.8206112E-1,-8.0683833E-1,-1.4290187E-1,6.57016E-1,3.8046286E-2,-4.1580275E-1,4.566682E-1,-1.05107695E-1,-8.781309E-1,1.4963277E-2,-7.835415E-2,7.976023E-1,1.7877941E-1,6.3797617E-1,-2.3958175E-1,1.2056703E-1,-5.367865E-1,8.915038E-1,4.980821E-2,-8.004434E-1,-2.3553802E-1,4.1420898E-1,9.653275E-1,1.4584887E-1,-3.1401504E-2,5.35206E-2,2.3371617E-1,6.3298374E-2,-5.1501364E-1,-2.7397233E-5,-7.1277565E-1,1.4148009E-1,2.4545793E-1,-7.69477E-2,1.3358909E-1,-1.3458414E-1,-9.026841E-1,1.6137561E-1,4.6337885E-3,1.15028135E-1,1.0594102E0,-5.590562E-2,-1.9577126E-1,1.118908E-1,-1.5368037E-1,-8.1639874E-1,-3.117322E-2,-1.6930208E-1,-2.2295298E-1,1.1314642E0,1.6183765E-1,-5.0787896E-1,-9.639592E-1,1.1889945E0,2.2450176E-1,-4.891972E-3,-2.2020413E-1,-1.3677335E-1,-1.0536902E0,2.5122905E-1,2.7903852E-1,-1.749E-1,-1.1491554E0,-2.3753887E-1,-2.9123294E-1],"categories":[],"categories_nodes":[],"categories_segments":[],"categories_sizes":[],"default_left":[0,0,0,0,0,0,0,0,0,0,0,0,0,0,0,0,0,0,0,0,0,0,0,0,0,0,0,0,0,0,0,0,0,0,0,0,0,0,0,0,0,0,0,0,0,0,0,0,0,0,0,0,0,0,0,0,0,0,0,0,0,0,0,0,0,0,0,0,0],"id":8,"left_children":[1,3,5,7,9,11,13,15,17,19,21,-1,23,-1,-1,25,27,29,31,-1,33,35,37,39,-1,41,43,-1,-1,-1,-1,-1,45,47,49,-1,-1,-1,-1,-1,51,-1,-1,-1,53,-1,-1,-1,-1,55,-1,-1,-1,57,-1,59,61,63,-1,-1,-1,-1,65,-1,-1,-1,67,-1,-1],"loss_changes":[3.7988596E2,3.0993353E2,5.5483093E1,1.3072296E2,2.1609212E2,1.3403076E1,7.0582614E0,7.1868774E1,8.3474815E1,1.22323E2,6.86027E1,0E0,6.2035522E0,0E0,0E0,5.312195E1,3.660243E1,2.5661957E1,4.92826E1,0E0,8.88327E1,9.958969E0,4.308677E1,6.480118E0,0E0,3.031263E1,2.4421753E1,0E0,0E0,0E0,0E0,0E0,2.1380894E1,7.9613815E1,4.209189E1,0E0,0E0,0E0,0E0,0E0,2.8620758E0,0E0,0E0,0E0,1.1540405E1,0E0,0E0,0E0,0E0,2.7307281E1,0E0,0E0,0E0,2.907257E0,0E0,4.4842556E1,1.2860321E1,1.0375061E0,0E0,0E0,0E0,0E0,8.42334E0,0E0,0E0,0E0,3.2077026E0,0E0,0E0],"parents":[2147483647,0,0,1,1,2,2,3,3,4,4,5,5,6,6,7,7,8,8,9,9,10,10,12,12,15,15,16,16,17,17,18,18,20,20,21,21,22,22,23,23,25,25,26,26,32,32,33,33,34,34,40,40,44,44,49,49,53,53,55,55,56,56,57,57,62,62,66,66],"right_children":[2,4,6,8,10,12,14,16,18,20,22,-1,24,-1,-1,26,28,30,32,-1,34,36,38,40,-1,42,44,-1,-1,-1,-1,-1,46,48,50,-1,-1,-1,-1,-1,52,-1,-1,-1,54,-1,-1,-1,-1,56,-1,-1,-1,58,-1,60,62,64,-1,-1,-1,-1,66,-1,-1,-1,68,-1,-1],"split_conditions":[4.347826E-2,5.1854765E-3,8.3333336E-2,-1.43694505E-2,1E0,-2.8705556E-2,-1.8065706E-2,8.29473E-3,-4.099953E-2,-6.481479E-2,-3.21333E-2,-1.05107695E-1,-3.836651E-2,1.4963277E-2,-7.835415E-2,-1.46846315E-2,-3.5255834E-2,-5.6092557E-3,2.334632E-2,1.2056703E-1,-9.167418E-3,-6.6024517E-3,3.379253E-2,-1.3473394E-2,-2.3553802E-1,-8.141746E-3,-2.8359227E-2,1.4584887E-1,-3.1401504E-2,5.35206E-2,2.3371617E-1,6.3298374E-2,-1.3101432E-2,1.839239E-2,1.0098475E-2,1.4148009E-1,2.4545793E-1,-7.69477E-2,1.3358909E-1,-1.3458414E-1,-1.2607147E-2,1.6137561E-1,4.6337885E-3,1.15028135E-1,2.2038301E-2,-5.590562E-2,-1.9577126E-1,1.118908E-1,-1.5368037E-1,3.687013E-3,-3.117322E-2,-1.6930208E-1,-2.2295298E-1,-7.5485744E-3,1.6183765E-1,-2.954733E-3,-2.1554783E-2,-4.414185E-3,2.2450176E-1,-4.891972E-3,-2.2020413E-1,-1.3677335E-1,-3.1627207E-3,2.5122905E-1,2.7903852E-1,-1.749E-1,9.774472E-3,-2.3753887E-1,-2.9123294E-1],"split_indices":[1,113,0,199,6,102,302,73,65,65,65,0,89,0,0,250,65,16,177,0,58,294,13,200,0,102,208,0,0,0,0,0,197,219,192,0,0,0,0,0,25,0,0,0,262,0,0,0,0,219,0,0,0,298,0,161,171,191,0,0,0,0,247,0,0,0,236,0,0],"split_type":[0,0,0,0,0,0,0,0,0,0,0,0,0,0,0,0,0,0,0,0,0,0,0,0,0,0,0,0,0,0,0,0,0,0,0,0,0,0,0,0,0,0,0,0,0,0,0,0,0,0,0,0,0,0,0,0,0,0,0,0,0,0,0,0,0,0,0,0,0],"sum_hessian":[3.7371675E3,3.017512E3,7.1965546E2,1.5701206E3,1.4473914E3,5.570486E2,1.6260687E2,1.068943E3,5.011776E2,1.0596241E3,3.877672E2,9.714928E1,4.5989932E2,8.076864E1,8.1838234E1,8.2609686E2,2.4284613E2,1.5855472E2,3.4262286E2,1.1923545E2,9.4038873E2,1.8743944E2,2.0032777E2,3.1773486E2,1.4216446E2,2.5141104E2,5.746858E2,9.787603E1,1.449701E2,7.993374E1,7.862099E1,1.1830712E2,2.2431575E2,2.3219728E2,7.0819147E2,8.257912E1,1.0486033E2,1.1649781E2,8.3829956E1,1.07668175E2,2.1006668E2,1.4135379E2,1.1005725E2,9.906759E1,4.7561823E2,1.2900258E2,9.531317E1,1.3436224E2,9.783503E1,5.9982605E2,1.0836541E2,8.1441765E1,1.2862492E2,3.917873E2,8.383093E1,1.9406807E2,4.0575797E2,2.709407E2,1.2084657E2,9.596182E1,9.810625E1,8.2197075E1,3.235609E2,1.2439108E2,1.4654964E2,8.389942E1,2.3966148E2,1.5123914E2,8.842235E1],"tree_param":{"num_deleted":"0","num_feature":"307","num_nodes":"69","size_leaf_vector":"1"}},{"base_weights":[-3.701053E-3,-5.6247765E-1,1.5049075E-1,-4.3126935E-1,-2.4324301E-1,4.8298305E-1,-9.13302E-2,-2.736169E-1,-2.0665656E-1,7.09956E-1,1.2756293E-1,4.1371685E-1,-2.821322E-1,1.0620909E-1,-4.9764478E-1,7.92742E-1,2.8549226E-2,4.9778998E-1,-1.7131664E-1,7.993494E-1,5.3742114E-3,-4.6529052E-1,4.2030534E-1,-2.2663878E-2,-7.862422E-1,9.1909856E-1,4.8081586E-1,5.3187028E-2,1.9181277E-1,-1.1464438E-1,6.20682E-2,2.4009867E-1,1.0153898E-1,8.694034E-2,-5.7083696E-2,-7.2310424E-1,-2.2013848E-1,-1.9102031E-2,2.1799356E-1,-1.097893E-1,-2.371698E-1,1.0493565E0,7.018633E-1,1.9086231E-1,1.0565905E-2,-8.5533106E-1,-3.290537E-2,1.8160403E-2,-5.9853494E-1,2.0828503E-1,1.1285514E0,1.078679E-1,2.0724532E-1,-6.384555E-1,-1.0445536E0,-9.493717E-2,9.688831E-2,-1.9610335E-1,-5.7197668E-2,2.4173997E-1,2.6362348E-1,-9.2619725E-2,-1.963525E-1,-2.700416E-1,-1.985449E-1],"categories":[],"categories_nodes":[],"categories_segments":[],"categories_sizes":[],"default_left":[0,0,0,0,0,0,0,0,0,0,0,0,0,0,0,0,0,0,0,0,0,0,0,0,0,0,0,0,0,0,0,0,0,0,0,0,0,0,0,0,0,0,0,0,0,0,0,0,0,0,0,0,0,0,0,0,0,0,0,0,0,0,0,0,0],"id":9,"left_children":[1,3,5,7,-1,9,11,13,-1,15,17,19,21,-1,23,25,-1,27,29,31,33,35,37,-1,39,41,43,-1,-1,-1,-1,-1,-1,-1,-1,45,47,-1,-1,-1,-1,49,51,-1,-1,53,-1,55,57,-1,59,-1,-1,61,63,-1,-1,-1,-1,-1,-1,-1,-1,-1,-1],"loss_changes":[3.0050333E2,5.1829315E1,2.1978256E2,4.6739906E1,0E0,9.2849396E1,1.5249838E2,7.651669E1,0E0,3.3870483E1,4.9634647E1,6.8330864E1,1.4777524E2,0E0,4.0207085E1,2.4239471E1,0E0,1.87085E1,3.791307E1,2.1059387E1,2.1000906E1,5.7581223E1,6.643269E1,0E0,1.642215E1,1.2385223E1,2.8559128E1,0E0,0E0,0E0,0E0,0E0,0E0,0E0,0E0,3.3830353E1,4.210911E1,0E0,0E0,0E0,0E0,2.584961E0,8.076653E0,0E0,0E0,1.4821594E1,0E0,5.250452E1,1.7159576E1,0E0,3.925476E-1,0E0,0E0,9.019249E0,4.9143524E0,0E0,0E0,0E0,0E0,0E0,0E0,0E0,0E0,0E0,0E0],"parents":[2147483647,0,0,1,1,2,2,3,3,5,5,6,6,7,7,9,9,10,10,11,11,12,12,14,14,15,15,17,17,18,18,19,19,20,20,21,21,22,22,24,24,25,25,26,26,35,35,36,36,41,41,42,42,45,45,47,47,48,48,50,50,53,53,54,54],"right_children":[2,4,6,8,-1,10,12,14,-1,16,18,20,22,-1,24,26,-1,28,30,32,34,36,38,-1,40,42,44,-1,-1,-1,-1,-1,-1,-1,-1,46,48,-1,-1,-1,-1,50,52,-1,-1,54,-1,56,58,-1,60,-1,-1,62,64,-1,-1,-1,-1,-1,-1,-1,-1,-1,-1],"split_conditions":[1.4814754E-1,2.0689656E-1,-8.50354E-3,4.347826E-2,-2.4324301E-1,4.346149E-2,2.9088825E-2,-1.4597718E-2,-2.0665656E-1,1.3199713E-2,-3.5001595E-2,5.1803077E-3,-4.71608E-3,1.0620909E-1,3.796708E-2,-2.052933E-2,2.8549226E-2,-7.826206E-3,2.8069422E-2,-5.3393226E-3,-8.597578E-3,4.9406565E-3,1E0,-2.2663878E-2,-2.5949797E-2,-3.6251266E-3,1.7077342E-1,5.3187028E-2,1.9181277E-1,-1.1464438E-1,6.20682E-2,2.4009867E-1,1.0153898E-1,8.694034E-2,-5.7083696E-2,1.0098475E-2,2.5033146E-2,-1.9102031E-2,2.1799356E-1,-1.097893E-1,-2.371698E-1,-4.9395673E-3,3.0013674E-3,1.9086231E-1,1.0565905E-2,3.839862E-2,-3.290537E-2,-6.2290314E-3,8.315753E-3,2.0828503E-1,4.659271E-3,1.078679E-1,2.0724532E-1,4.8278683E-4,1.9977918E-2,-9.493717E-2,9.688831E-2,-1.9610335E-1,-5.7197668E-2,2.4173997E-1,2.6362348E-1,-9.2619725E-2,-1.963525E-1,-2.700416E-1,-1.985449E-1],"split_indices":[4,3,102,1,0,177,213,189,0,264,102,119,143,0,52,85,0,27,195,71,300,179,6,0,251,58,5,0,0,0,0,0,0,0,0,192,102,0,0,0,0,170,227,0,0,194,0,130,107,0,79,0,0,211,222,0,0,0,0,0,0,0,0,0,0],"split_type":[0,0,0,0,0,0,0,0,0,0,0,0,0,0,0,0,0,0,0,0,0,0,0,0,0,0,0,0,0,0,0,0,0,0,0,0,0,0,0,0,0,0,0,0,0,0,0,0,0,0,0,0,0,0,0,0,0,0,0,0,0,0,0,0,0],"sum_hessian":[3.4877856E3,7.542942E2,2.7334915E3,6.031717E2,1.5112247E2,1.1509668E3,1.5825247E3,4.566919E2,1.4647983E2,7.024066E2,4.4856012E2,4.3392874E2,1.148596E3,1.0526911E2,3.5142276E2,6.14998E2,8.740863E1,2.0036487E2,2.4819525E2,2.2317018E2,2.1075854E2,9.110442E2,2.3755179E2,1.4804933E2,2.0337343E2,4.3769452E2,1.7730348E2,1.1611276E2,8.4252106E1,1.4106085E2,1.071344E2,1.2478038E2,9.83898E1,8.5295006E1,1.2546353E2,4.4405478E2,4.669894E2,1.2410606E2,1.1344574E2,9.754118E1,1.0583225E2,2.7362466E2,1.6406987E2,9.549899E1,8.180449E1,3.611691E2,8.288568E1,2.8653882E2,1.804506E2,1.0917565E2,1.64449E2,8.265718E1,8.141269E1,1.682878E2,1.928813E2,1.3865166E2,1.4788715E2,9.9824524E1,8.062608E1,8.182443E1,8.262457E1,8.658767E1,8.170012E1,9.544437E1,9.743694E1],"tree_param":{"num_deleted":"0","num_feature":"307","num_nodes":"65","size_leaf_vector":"1"}},{"base_weights":[-3.5760894E-3,-3.3856472E-1,2.0699148E-1,1.2287797E-1,-3.972726E-1,3.054892E-1,-5.921735E-1,-5.189312E-1,-2.4491486E-3,5.6045586E-1,1.7127125E-3,-2.1514851E-1,7.6209935E-3,-7.432989E-1,-2.614075E-1,-2.879438E-1,1.1833419E-1,1.5960795E-1,7.674773E-1,-1.1739487E-1,1.6004382E-1,-8.695611E-1,-1.03908025E-1,1.19993165E-2,-5.9630233E-1,-1.301319E-1,1.3967533E-2,1.6361424E-1,-1.2691629E-1,3.758936E-1,9.1577417E-1,-2.939292E-1,4.1884622E-1,-9.8311967E-1,-1.4379759E-1,1.0247318E-1,-6.5455385E-2,-1.8854767E-1,-6.503985E-2,-1.4104068E-1,3.482404E-2,1.2123741E-3,1.6715012E-1,1.0344383E0,1.3210809E-1,1.8819693E-1,-5.8192056E-1,-1.6140489E-2,1.8598612E-1,-1.7851916E-1,-2.493388E-1,1.1270609E0,1.9489303E-1,-7.565261E-2,1.3276999E-1,-5.186981E-3,-7.576808E-1,2.3999996E-1,2.7029172E-1,-2.2283481E-1,-1.0093882E-1],"categories":[],"categories_nodes":[],"categories_segments":[],"categories_sizes":[],"default_left":[0,0,0,0,0,0,0,0,0,0,0,0,0,0,0,0,0,0,0,0,0,0,0,0,0,0,0,0,0,0,0,0,0,0,0,0,0,0,0,0,0,0,0,0,0,0,0,0,0,0,0,0,0,0,0,0,0,0,0,0,0],"id":10,"left_children":[1,3,5,-1,7,9,11,13,15,17,19,-1,-1,21,23,25,-1,27,29,31,-1,33,-1,35,37,-1,-1,-1,39,41,43,45,47,49,-1,-1,-1,-1,-1,-1,-1,-1,-1,51,-1,53,55,-1,-1,-1,-1,57,-1,-1,-1,-1,59,-1,-1,-1,-1],"loss_changes":[2.3170921E2,6.604199E1,1.587724E2,0E0,5.7120773E1,1.3908273E2,5.1077187E1,5.2525925E1,4.245301E1,8.10163E1,6.9582344E1,0E0,0E0,1.7132751E1,3.8754753E1,1.870551E1,0E0,5.439649E1,3.738553E1,6.6466194E1,0E0,8.641647E0,0E0,3.1593428E1,1.4293045E1,0E0,0E0,0E0,3.1443182E1,2.4273012E1,1.8056335E1,7.334308E1,3.51418E1,5.4060364E0,0E0,0E0,0E0,0E0,0E0,0E0,0E0,0E0,0E0,5.205017E0,0E0,4.204718E1,3.2476364E1,0E0,0E0,0E0,0E0,9.6810913E-1,0E0,0E0,0E0,0E0,1.8328033E1,0E0,0E0,0E0,0E0],"parents":[2147483647,0,0,1,1,2,2,4,4,5,5,6,6,7,7,8,8,9,9,10,10,13,13,14,14,15,15,17,17,18,18,19,19,21,21,23,23,24,24,28,28,29,29,30,30,31,31,32,32,33,33,43,43,45,45,46,46,51,51,56,56],"right_children":[2,4,6,-1,8,10,12,14,16,18,20,-1,-1,22,24,26,-1,28,30,32,-1,34,-1,36,38,-1,-1,-1,40,42,44,46,48,50,-1,-1,-1,-1,-1,-1,-1,-1,-1,52,-1,54,56,-1,-1,-1,-1,58,-1,-1,-1,-1,60,-1,-1,-1,-1],"split_conditions":[1.49443075E-2,-8.456123E-2,8.3333336E-2,1.2287797E-1,1E0,2.177692E-3,8.3333336E-2,-8.434643E-3,2.1747658E-2,1.3423872E-2,2.5602162E-2,-2.1514851E-1,7.6209935E-3,6.1138785E-3,3.717882E-3,8.08366E-3,1.1833419E-1,-4.3741688E-2,-2.6490295E-2,-8.928865E-3,1.6004382E-1,3.5861575E-3,-1.03908025E-1,6.2378966E-3,-2.2555662E-3,-1.301319E-1,1.3967533E-2,1.6361424E-1,-2.0020993E-2,-7.1047503E-3,-8.644453E-5,3.676276E-2,5.6708433E-2,2.821656E-4,-1.4379759E-1,1.0247318E-1,-6.5455385E-2,-1.8854767E-1,-6.503985E-2,-1.4104068E-1,3.482404E-2,1.2123741E-3,1.6715012E-1,-6.7764637E-3,1.3210809E-1,-1.4868903E-2,-4.132362E-2,-1.6140489E-2,1.8598612E-1,-1.7851916E-1,-2.493388E-1,2.8961554E-2,1.9489303E-1,-7.565261E-2,1.3276999E-1,-5.186981E-3,-4.350938E-3,2.3999996E-1,2.7029172E-1,-2.2283481E-1,-1.0093882E-1],"split_indices":[195,65,3,0,6,73,0,27,180,159,100,0,0,147,88,186,0,65,279,143,0,175,0,219,192,0,0,0,160,160,253,213,157,183,0,0,0,0,0,0,0,0,0,58,0,279,89,0,0,0,0,194,0,0,0,0,123,0,0,0,0],"split_type":[0,0,0,0,0,0,0,0,0,0,0,0,0,0,0,0,0,0,0,0,0,0,0,0,0,0,0,0,0,0,0,0,0,0,0,0,0,0,0,0,0,0,0,0,0,0,0,0,0,0,0,0,0,0,0,0,0,0,0,0,0],"sum_hessian":[3.2848972E3,1.2678672E3,2.0170299E3,7.868541E1,1.1891818E3,1.7957075E3,2.213224E2,9.090671E2,2.8011472E2,9.762872E2,8.194204E2,1.3932512E2,8.1997284E1,4.858072E2,4.2325986E2,1.8215251E2,9.796221E1,3.324931E2,6.4379407E2,7.0212036E2,1.17300026E2,3.3456735E2,1.5123985E2,2.3302179E2,1.9023807E2,9.916858E1,8.2983925E1,1.11097374E2,2.2139575E2,1.768403E2,4.6695374E2,5.28225E2,1.7389536E2,2.2315494E2,1.1141241E2,9.455633E1,1.3846547E2,1.05509796E2,8.472827E1,7.9620865E1,1.4177487E2,8.8421486E1,8.841881E1,3.4230338E2,1.2465038E2,1.9753383E2,3.3069116E2,7.931117E1,9.458418E1,9.192426E1,1.3123068E2,2.1883867E2,1.2346469E2,8.588944E1,1.1164439E2,7.91298E1,2.5156137E2,1.2924808E2,8.959058E1,1.4186343E2,1.09697945E2],"tree_param":{"num_deleted":"0","num_feature":"307","num_nodes":"61","size_leaf_vector":"1"}},{"base_weights":[-3.2234055E-3,-2.4649574E-1,2.514292E-1,-3.1093812E-1,1.1918765E-1,3.4268367E-1,-1.2814948E-1,9.407023E-2,-4.310397E-1,4.1348553E-1,-1.0574524E-1,4.4448313E-1,-8.4431864E-2,-2.2422859E-1,-6.954202E-1,2.618405E-1,8.8138527E-1,1.7513411E-1,1.8404683E-2,2.6690698E-1,-4.654465E-1,-6.0052272E-2,-8.0820763E-1,-4.7907997E-2,6.151128E-1,6.5733683E-1,2.563111E-1,1.293973E-1,-4.84058E-2,-6.0505915E-1,3.4891937E-2,-9.8110336E-1,-5.5236316E-1,-3.7109306E-1,3.7837076E-1,8.3301014E-1,3.1072767E-2,7.945901E-2,2.157244E-1,-7.931968E-1,-6.962802E-2,-2.4514718E-1,-1.7992613E-1,-1.8671909E-1,-6.0190246E-2,4.220914E-2,-5.895036E-1,2.0103171E-1,1.5032019E-2,9.9428403E-1,1.0042924E-1,-1.0944275E-1,-2.1855934E-1,-6.1315782E-2,-1.9954091E-1,1.9149338E-1,2.4550433E-1],"categories":[],"categories_nodes":[],"categories_segments":[],"categories_sizes":[],"default_left":[0,0,0,0,0,0,0,0,0,0,0,0,0,0,0,0,0,0,0,0,0,0,0,0,0,0,0,0,0,0,0,0,0,0,0,0,0,0,0,0,0,0,0,0,0,0,0,0,0,0,0,0,0,0,0,0,0],"id":11,"left_children":[1,3,5,7,-1,9,-1,11,13,15,-1,17,-1,19,21,23,25,-1,-1,27,29,-1,31,33,35,37,-1,-1,-1,39,-1,41,43,45,47,49,-1,-1,-1,51,-1,-1,-1,-1,-1,-1,53,-1,-1,55,-1,-1,-1,-1,-1,-1,-1],"loss_changes":[1.9316946E2,8.002575E1,1.1450638E2,7.164142E1,0E0,7.912779E1,0E0,5.5607407E1,6.2110992E1,8.953456E1,0E0,2.3624043E1,0E0,7.5510635E1,2.4027023E1,1.0428181E2,1.8208984E1,0E0,0E0,3.152837E1,3.7074043E1,0E0,1.74487E1,6.995475E1,4.621263E1,1.5440468E1,0E0,0E0,0E0,1.9314156E1,0E0,4.749466E0,1.2694565E1,3.5297565E1,3.5391834E1,1.8945786E1,0E0,0E0,0E0,1.1844955E1,0E0,0E0,0E0,0E0,0E0,0E0,1.9774155E1,0E0,0E0,3.0552063E0,0E0,0E0,0E0,0E0,0E0,0E0,0E0],"parents":[2147483647,0,0,1,1,2,2,3,3,5,5,7,7,8,8,9,9,11,11,13,13,14,14,15,15,16,16,19,19,20,20,22,22,23,23,24,24,25,25,29,29,31,31,32,32,33,33,34,34,35,35,39,39,46,46,49,49],"right_children":[2,4,6,8,-1,10,-1,12,14,16,-1,18,-1,20,22,24,26,-1,-1,28,30,-1,32,34,36,38,-1,-1,-1,40,-1,42,44,46,48,50,-1,-1,-1,52,-1,-1,-1,-1,-1,-1,54,-1,-1,56,-1,-1,-1,-1,-1,-1,-1],"split_conditions":[-4.5543355E-3,6.0048E-3,1.4285715E-1,-1.703595E-2,1.1918765E-1,2.1052632E-1,-1.2814948E-1,4.347826E-2,-1.3322735E-2,4.8119808E-3,-1.0574524E-1,-6.519304E-3,-8.4431864E-2,4.4392347E-3,-2.204147E-2,-4.0784357E-3,1.0098475E-2,1.7513411E-1,1.8404683E-2,1.4006948E-2,4.160372E-2,-6.0052272E-2,-5.6697098E-3,-7.742699E-3,4.910155E-2,1.7969897E-2,2.563111E-1,1.293973E-1,-4.84058E-2,-5.7081976E-3,3.4891937E-2,7.1988706E-3,-1.195152E-2,-1.4913933E-2,-1.2458505E-2,4.703957E-2,3.1072767E-2,7.945901E-2,2.157244E-1,1.7123668E-3,-6.962802E-2,-2.4514718E-1,-1.7992613E-1,-1.8671909E-1,-6.0190246E-2,4.220914E-2,1.1401625E-2,2.0103171E-1,1.5032019E-2,-2.0154414E-3,1.0042924E-1,-1.0944275E-1,-2.1855934E-1,-6.1315782E-2,-1.9954091E-1,1.9149338E-1,2.4550433E-1],"split_indices":[91,143,3,261,0,1,0,1,199,160,0,189,0,118,241,130,192,0,0,119,119,0,27,250,213,186,0,0,0,103,0,100,115,292,83,138,0,0,0,202,0,0,0,0,0,0,302,0,0,127,0,0,0,0,0,0,0],"split_type":[0,0,0,0,0,0,0,0,0,0,0,0,0,0,0,0,0,0,0,0,0,0,0,0,0,0,0,0,0,0,0,0,0,0,0,0,0,0,0,0,0,0,0,0,0,0,0,0,0,0,0,0,0,0,0,0,0],"sum_hessian":[3.1181543E3,1.5947106E3,1.5234438E3,1.4728264E3,1.2188405E2,1.3714944E3,1.5194943E2,3.3686044E2,1.1359661E3,1.2618556E3,1.09638725E2,1.9317203E2,1.4368842E2,6.3737823E2,4.9858777E2,9.5299316E2,3.088625E2,1.0000128E2,9.317074E1,2.0993558E2,4.274427E2,1.04127655E2,3.944601E2,5.0777606E2,4.452171E2,1.6682115E2,1.4204134E2,1.27728615E2,8.220696E1,3.4901025E2,7.843242E1,2.3538834E2,1.590718E2,2.8881198E2,2.1896407E2,3.054831E2,1.3973401E2,8.3880104E1,8.294105E1,2.1286205E2,1.3614821E2,1.4359958E2,9.178875E1,7.9843956E1,7.922783E1,8.108098E1,2.0773102E2,8.205601E1,1.3690805E2,2.1522371E2,9.0259384E1,7.983714E1,1.330249E2,1.0147776E2,1.0625326E2,9.10055E1,1.242182E2],"tree_param":{"num_deleted":"0","num_feature":"307","num_nodes":"57","size_leaf_vector":"1"}},{"base_weights":[-2.1238772E-3,-5.377134E-1,9.5159635E-2,-4.2867026E-1,-2.3451038E-1,3.566561E-1,-8.255402E-2,-2.1361299E-1,-1.9237332E-1,5.8259122E-2,5.7333153E-1,1.01179644E-1,-4.0275326E-1,-4.7072214E-1,5.342123E-2,-2.6603445E-1,4.3164054E-1,7.6285887E-1,2.84711E-1,4.395554E-1,-1.6455613E-1,3.5951678E-3,-5.8069485E-1,-3.215665E-2,-1.7698213E-1,-1.3960446E-1,8.239385E-3,1.6134427E-1,1.3321771E-2,1.0182774E-1,8.981428E-1,1.4513066E-1,-1.900213E-3,-3.7675004E-2,6.578263E-1,-3.290983E-1,1.1932403E-1,-7.39498E-2,7.8836635E-2,-2.0034054E-2,-7.2306526E-1,1.4738286E-1,1.0323266E0,8.77867E-1,1.7809052E-2,2.1128025E-2,-4.7767994E-1,-8.591744E-2,-8.634902E-1,2.4572551E-1,2.1633641E-1,2.3337081E-1,1.3708264E-1,-2.7500123E-1,-1.8729617E-1,-1.4247602E-1,-2.3025204E-1,-1.0499216E-3,-1.3850313E-1],"categories":[],"categories_nodes":[],"categories_segments":[],"categories_sizes":[],"default_left":[0,0,0,0,0,0,0,0,0,0,0,0,0,0,0,0,0,0,0,0,0,0,0,0,0,0,0,0,0,0,0,0,0,0,0,0,0,0,0,0,0,0,0,0,0,0,0,0,0,0,0,0,0,0,0,0,0,0,0],"id":12,"left_children":[1,3,5,7,-1,9,11,13,-1,15,17,19,21,23,-1,25,27,29,31,33,35,37,39,-1,-1,-1,-1,-1,-1,-1,41,-1,-1,-1,43,45,-1,-1,-1,-1,47,-1,49,51,-1,-1,53,-1,55,-1,-1,-1,-1,57,-1,-1,-1,-1,-1],"loss_changes":[1.5421509E2,2.5274689E1,1.16401245E2,3.468302E1,0E0,6.552748E1,8.773512E1,2.9049587E1,0E0,5.1624023E1,3.2117706E1,8.520427E1,3.9314842E1,1.6653107E1,0E0,2.469145E1,2.1300735E1,1.4775269E1,2.4793482E1,5.529586E1,6.0903343E1,1.925978E1,2.6446022E1,0E0,0E0,0E0,0E0,0E0,0E0,0E0,7.9324493E0,0E0,0E0,0E0,3.9025116E1,2.7018124E1,0E0,0E0,0E0,0E0,1.3973145E1,0E0,6.800995E-1,9.694672E0,0E0,0E0,2.3108505E1,0E0,7.7612305E0,0E0,0E0,0E0,0E0,1.8857502E1,0E0,0E0,0E0,0E0,0E0],"parents":[2147483647,0,0,1,1,2,2,3,3,5,5,6,6,7,7,9,9,10,10,11,11,12,12,13,13,15,15,16,16,17,17,18,18,19,19,20,20,21,21,22,22,30,30,34,34,35,35,40,40,42,42,43,43,46,46,48,48,53,53],"right_children":[2,4,6,8,-1,10,12,14,-1,16,18,20,22,24,-1,26,28,30,32,34,36,38,40,-1,-1,-1,-1,-1,-1,-1,42,-1,-1,-1,44,46,-1,-1,-1,-1,48,-1,50,52,-1,-1,54,-1,56,-1,-1,-1,-1,58,-1,-1,-1,-1,-1],"split_conditions":[1.338945E-1,5.6609146E-2,-8.798636E-3,4.347826E-2,-2.3451038E-1,-2.3350129E-2,2.0635476E-2,7.606855E-4,-1.9237332E-1,9.454956E-3,9.230762E-4,1.8306665E-2,-1.0447563E-2,1.2320663E-2,5.342123E-2,3.492944E-2,3.822528E-2,-1.3391979E-2,-3.4836765E-2,-2.2256935E-2,7.730129E-2,1.2499235E-2,-6.1365526E-2,-3.215665E-2,-1.7698213E-1,-1.3960446E-1,8.239385E-3,1.6134427E-1,1.3321771E-2,1.0182774E-1,2.5479572E-3,1.4513066E-1,-1.900213E-3,-3.7675004E-2,6.6558234E-3,-1.092955E-2,1.1932403E-1,-7.39498E-2,7.8836635E-2,-2.0034054E-2,-2.739416E-2,1.4738286E-1,6.207096E-3,4.203034E-3,1.7809052E-2,2.1128025E-2,2.2598426E-1,-8.591744E-2,-3.4450176E-3,2.4572551E-1,2.1633641E-1,2.3337081E-1,1.3708264E-1,5.1761072E-2,-1.8729617E-1,-1.4247602E-1,-2.3025204E-1,-1.0499216E-3,-1.3850313E-1],"split_indices":[4,189,102,1,0,250,219,147,0,100,205,262,142,102,0,13,106,287,89,238,157,180,218,0,0,0,0,0,0,0,227,0,0,0,73,161,0,0,0,0,11,0,162,118,0,0,5,0,163,0,0,0,0,213,0,0,0,0,0],"split_type":[0,0,0,0,0,0,0,0,0,0,0,0,0,0,0,0,0,0,0,0,0,0,0,0,0,0,0,0,0,0,0,0,0,0,0,0,0,0,0,0,0,0,0,0,0,0,0,0,0,0,0,0,0,0,0,0,0,0,0],"sum_hessian":[2.9597534E3,4.5496518E2,2.504788E3,3.7475385E2,8.021132E1,1.01349E3,1.4912982E3,2.4988051E2,1.24873344E2,4.2634467E2,5.871453E2,9.4757166E2,5.437265E2,1.5929886E2,9.058165E1,2.2817096E2,1.981737E2,3.544138E2,2.3273154E2,4.1681656E2,5.307551E2,1.6558821E2,3.7813828E2,7.871767E1,8.05812E1,1.0466333E2,1.2350764E2,1.1157965E2,8.6594055E1,1.0812258E2,2.462912E2,1.039319E2,1.2879964E2,1.1013616E2,3.0668042E2,4.2943323E2,1.0132188E2,8.456967E1,8.101854E1,8.4967155E1,2.931711E2,8.831486E1,1.5797635E2,2.2215265E2,8.452776E1,1.1154407E2,3.178892E2,8.5796715E1,2.073744E2,7.982021E1,7.815613E1,1.3730501E2,8.484763E1,2.0311194E2,1.1477724E2,8.712239E1,1.20252014E2,1.1365967E2,8.945227E1],"tree_param":{"num_deleted":"0","num_feature":"307","num_nodes":"59","size_leaf_vector":"1"}},{"base_weights":[-1.9959765E-3,9.83718E-2,-4.521421E-1,1.6076292E-1,-2.0881897E-1,-6.1972374E-1,-8.487975E-2,2.7756779E-2,8.026107E-1,-7.933439E-1,-8.653485E-2,2.2407055E-2,-6.1657682E-2,-3.2035482E-1,2.2704901E-1,1.0238719E0,5.1772863E-2,-2.0959213E-1,-1.2747972E-1,2.7998886E-1,-5.382258E-1,-5.688223E-2,4.8050508E-1,2.761005E-1,1.779357E-1,1.3760234E-1,-8.777183E-3,1.3838195E-2,-6.701771E-1,-2.6954368E-1,1.4645565E-1,6.3047564E-1,-3.1740434E-2,-8.0487627E-1,-3.466449E-2,4.6316296E-2,-4.7531226E-1,8.2534397E-1,3.859852E-2,-6.5276986E-1,-2.3271714E-1,-1.111478E-2,-6.9355124E-1,8.639274E-2,9.675113E-1,-2.043137E-1,-1.0083039E-1,-2.0660767E-1,-9.873685E-2,1.7853136E-1,1.0680052E0,2.1976574E-1,2.599924E-1],"categories":[],"categories_nodes":[],"categories_segments":[],"categories_sizes":[],"default_left":[0,0,0,0,0,0,0,0,0,0,0,0,0,0,0,0,0,0,0,0,0,0,0,0,0,0,0,0,0,0,0,0,0,0,0,0,0,0,0,0,0,0,0,0,0,0,0,0,0,0,0,0,0],"id":13,"left_children":[1,3,5,7,-1,9,11,13,15,17,-1,-1,-1,19,21,23,-1,-1,-1,25,27,29,31,-1,-1,-1,-1,-1,33,35,-1,37,-1,39,-1,-1,41,43,-1,45,-1,-1,47,-1,49,-1,-1,-1,-1,-1,51,-1,-1],"loss_changes":[1.2788859E2,1.488593E2,3.1762375E1,1.8631673E2,0E0,1.435495E1,5.695025E0,1.2542066E2,4.736589E1,6.491104E0,0E0,0E0,0E0,8.608793E1,8.273453E1,1.294458E1,0E0,0E0,0E0,1.8709003E1,3.823433E1,8.1970634E1,5.668376E1,0E0,0E0,0E0,0E0,0E0,2.7481857E1,4.0910957E1,0E0,4.3695694E1,0E0,1.1184265E1,0E0,0E0,2.7077538E1,2.1459503E1,0E0,1.0003548E1,0E0,0E0,1.1149582E1,0E0,4.440796E0,0E0,0E0,0E0,0E0,0E0,1.314682E0,0E0,0E0],"parents":[2147483647,0,0,1,1,2,2,3,3,5,5,6,6,7,7,8,8,9,9,13,13,14,14,15,15,19,19,20,20,21,21,22,22,28,28,29,29,31,31,33,33,36,36,37,37,39,39,42,42,44,44,50,50],"right_children":[2,4,6,8,-1,10,12,14,16,18,-1,-1,-1,20,22,24,-1,-1,-1,26,28,30,32,-1,-1,-1,-1,-1,34,36,-1,38,-1,40,-1,-1,42,44,-1,46,-1,-1,48,-1,50,-1,-1,-1,-1,-1,52,-1,-1],"split_conditions":[4.347826E-2,1.764706E-1,1.764706E-1,1.4429967E-2,-2.0881897E-1,1.6841227E-2,-5.618685E-3,4.9281353E-4,1.7570546E-2,1.2166836E-2,-8.653485E-2,2.2407055E-2,-6.1657682E-2,-3.836651E-2,-1.6650934E-2,-1.15183E-2,5.1772863E-2,-2.0959213E-1,-1.2747972E-1,-3.4256733E-3,-1.6410857E-3,2.4067137E-2,-6.58374E-3,2.761005E-1,1.779357E-1,1.3760234E-1,-8.777183E-3,1.3838195E-2,1E0,-4.740809E-2,1.4645565E-1,1.020086E-2,-3.1740434E-2,-6.135904E-3,-3.466449E-2,4.6316296E-2,-1.02542825E-2,-1.8580938E-2,3.859852E-2,-2.4069732E-3,-2.3271714E-1,-1.111478E-2,4.2328667E-3,8.639274E-2,1.5579951E-2,-2.043137E-1,-1.0083039E-1,-2.0660767E-1,-9.873685E-2,1.7853136E-1,1.6229415E-2,2.1976574E-1,2.599924E-1],"split_indices":[1,3,2,192,0,223,63,227,302,299,0,0,0,89,279,53,0,0,0,302,118,227,85,0,0,0,0,0,6,85,0,118,0,190,0,0,283,208,0,107,0,0,278,0,60,0,0,0,0,0,193,0,0],"split_type":[0,0,0,0,0,0,0,0,0,0,0,0,0,0,0,0,0,0,0,0,0,0,0,0,0,0,0,0,0,0,0,0,0,0,0,0,0,0,0,0,0,0,0,0,0,0,0,0,0,0,0,0,0],"sum_hessian":[2.8306355E3,2.314564E3,5.160716E2,2.1824688E3,1.3209514E2,3.543719E2,1.6169972E2,1.8078411E3,3.7462772E2,2.0317798E2,1.511939E2,8.20363E1,7.966342E1,6.581771E2,1.149664E3,2.7005865E2,1.0456905E2,1.24181465E2,7.899652E1,1.7525685E2,4.829203E2,5.4223334E2,6.074306E2,1.4128604E2,1.2877263E2,8.5580956E1,8.96759E1,8.7055435E1,3.9586484E2,4.173718E2,1.2486151E2,4.894615E2,1.1796914E2,3.1384094E2,8.202391E1,1.2590251E2,2.914693E2,3.4339362E2,1.4606787E2,1.9029579E2,1.2354515E2,9.878554E1,1.9268376E2,8.391995E1,2.5947366E2,8.34035E1,1.0689228E2,1.0106828E2,9.161547E1,9.6291016E1,1.6318265E2,8.444391E1,7.873874E1],"tree_param":{"num_deleted":"0","num_feature":"307","num_nodes":"53","size_leaf_vector":"1"}},{"base_weights":[-1.4970466E-3,8.8747516E-2,-4.3954343E-1,4.7710168E-1,-3.6441192E-2,-7.159767E-1,-2.5676003E-1,5.7850087E-1,-5.453999E-4,-2.9420948E-1,1.1535484E-1,-1.1399341E-1,-2.2196667E-1,-4.0958187E-1,2.7319979E-2,7.188836E-1,4.9596597E-2,1.2445964E-1,-4.4885176E-1,-1.3925147E-1,3.3316955E-1,-3.4133527E-2,-1.4534636E-1,1.009425E-1,8.658519E-1,1.0195209E-1,-3.614731E-2,-6.5764934E-1,-2.0692632E-1,6.496635E-2,-3.0679214E-1,-1.4370933E-2,5.2535814E-1,1.6206236E-1,2.2606672E-1,-6.24422E-2,-8.5691994E-1,-1.3890557E-1,1.1263544E-2,6.928529E-3,-4.4199964E-1,-7.700801E-2,7.005716E-2,4.6529412E-2,7.5688326E-1,-2.3369873E-1,-1.5054227E-1,-1.5261877E-1,-4.1458566E-2,2.1670663E-1,9.662776E-2],"categories":[],"categories_nodes":[],"categories_segments":[],"categories_sizes":[],"default_left":[0,0,0,0,0,0,0,0,0,0,0,0,0,0,0,0,0,0,0,0,0,0,0,0,0,0,0,0,0,0,0,0,0,0,0,0,0,0,0,0,0,0,0,0,0,0,0,0,0,0,0],"id":14,"left_children":[1,3,5,7,9,11,13,15,-1,17,19,-1,-1,21,-1,23,-1,25,27,29,31,-1,-1,-1,33,-1,-1,35,37,-1,39,41,43,-1,-1,-1,45,-1,-1,-1,47,-1,-1,-1,49,-1,-1,-1,-1,-1,-1],"loss_changes":[1.06246826E2,1.083465E2,2.319796E1,2.6415977E1,6.594213E1,1.04073715E1,1.5996956E1,2.2476456E1,0E0,4.043994E1,5.8821598E1,0E0,0E0,1.2125393E1,0E0,1.2684647E1,0E0,1.5932135E1,2.304087E1,3.517786E1,3.8181534E1,0E0,0E0,0E0,4.245743E0,0E0,0E0,1.848175E1,2.2465664E1,0E0,1.6062977E1,2.1945148E1,2.7065239E1,0E0,0E0,0E0,5.5301056E0,0E0,0E0,0E0,1.5453941E1,0E0,0E0,0E0,1.46024475E1,0E0,0E0,0E0,0E0,0E0,0E0],"parents":[2147483647,0,0,1,1,2,2,3,3,4,4,5,5,6,6,7,7,9,9,10,10,13,13,15,15,17,17,18,18,19,19,20,20,24,24,27,27,28,28,30,30,31,31,32,32,36,36,40,40,44,44],"right_children":[2,4,6,8,10,12,14,16,-1,18,20,-1,-1,22,-1,24,-1,26,28,30,32,-1,-1,-1,34,-1,-1,36,38,-1,40,42,44,-1,-1,-1,46,-1,-1,-1,48,-1,-1,-1,50,-1,-1,-1,-1,-1,-1],"split_conditions":[-3.726488E-3,1.8701795E-2,4.131194E-3,2.4192357E-2,1.49443075E-2,3.04436E-2,1.5053226E-2,3.531861E-2,-5.453999E-4,-1.897036E-2,-4.810061E-4,-1.1399341E-1,-2.2196667E-1,-5.8043175E-3,2.7319979E-2,-2.4331305E-3,4.9596597E-2,1.9242136E-3,2.5479572E-3,-1.20764235E-2,-3.0911497E-3,-3.4133527E-2,-1.4534636E-1,1.009425E-1,-3.798822E-3,1.0195209E-1,-3.614731E-2,-4.3467604E-2,-8.351472E-5,6.496635E-2,-1.7610196E-2,-1.0969913E-2,1.5239909E-2,1.6206236E-1,2.2606672E-1,-6.24422E-2,-7.7213035E-3,-1.3890557E-1,1.1263544E-2,6.928529E-3,-1.596441E-2,-7.700801E-2,7.005716E-2,4.6529412E-2,1.0409625E-2,-2.3369873E-1,-1.5054227E-1,-1.5261877E-1,-4.1458566E-2,2.1670663E-1,9.662776E-2],"split_indices":[65,177,62,102,195,189,186,52,0,261,291,0,0,200,0,282,0,36,227,302,227,0,0,0,11,0,0,89,179,0,266,115,217,0,0,0,294,0,0,0,18,0,0,0,219,0,0,0,0,0,0],"split_type":[0,0,0,0,0,0,0,0,0,0,0,0,0,0,0,0,0,0,0,0,0,0,0,0,0,0,0,0,0,0,0,0,0,0,0,0,0,0,0,0,0,0,0,0,0,0,0,0,0,0,0],"sum_hessian":[2.6876633E3,2.2285469E3,4.591163E2,5.432631E2,1.6852838E3,1.8274344E2,2.7637286E2,4.4843958E2,9.482353E1,6.246135E2,1.0606703E3,1.04301796E2,7.844165E1,1.9691882E2,7.945405E1,3.2187946E2,1.265601E2,1.6848027E2,4.5613324E2,4.890333E2,5.71637E2,9.494571E1,1.0197311E2,1.1396097E2,2.079185E2,7.810343E1,9.037683E1,2.4482936E2,2.1130388E2,1.3726643E2,3.5176685E2,2.0355048E2,3.6808658E2,1.044796E2,1.034389E2,8.4393456E1,1.604359E2,8.105485E1,1.3024902E2,1.0056608E2,2.5120076E2,1.0141938E2,1.02131096E2,1.5519812E2,2.1288844E2,7.980042E1,8.063548E1,1.2999692E2,1.21203835E2,1.2919775E2,8.36907E1],"tree_param":{"num_deleted":"0","num_feature":"307","num_nodes":"51","size_leaf_vector":"1"}},{"base_weights":[-1.3067845E-3,-1.2431137E-1,2.855175E-1,-3.1601962E-1,1.2133641E-1,1.7648195E-1,2.2964959E-1,-5.4562014E-1,-1.2566756E-1,-1.6098087E-1,4.1258788E-1,3.312368E-1,-9.679575E-2,-3.1220116E-2,-6.5653044E-1,-2.896932E-1,2.5747034E-1,-3.763901E-1,7.716364E-2,6.3602823E-1,-3.298258E-2,6.1247934E-2,5.8215916E-1,-7.8381944E-1,-6.975398E-2,-5.117735E-1,-2.0069463E-2,-1.9590318E-2,1.3826819E-1,-7.0037665E-3,-5.992454E-1,8.484471E-1,2.1447927E-2,1.1240836E-1,-1.6500619E-1,3.1472832E-2,7.641894E-1,-9.085625E-1,-1.15524895E-1,-1.5994754E-1,-5.0267335E-2,6.683707E-2,-7.195621E-2,-7.224064E-2,-1.945047E-1,2.4061874E-1,1.5378538E-1,2.9419525E-2,-9.3539335E-2,2.18888E-1,1.1473772E-1,-2.3643516E-1,-1.657972E-1],"categories":[],"categories_nodes":[],"categories_segments":[],"categories_sizes":[],"default_left":[0,0,0,0,0,0,0,0,0,0,0,0,0,0,0,0,0,0,0,0,0,0,0,0,0,0,0,0,0,0,0,0,0,0,0,0,0,0,0,0,0,0,0,0,0,0,0,0,0,0,0,0,0],"id":15,"left_children":[1,3,5,7,9,11,-1,13,15,17,19,21,-1,-1,23,25,27,29,-1,31,-1,33,35,37,-1,39,41,-1,-1,-1,43,45,-1,-1,47,-1,49,51,-1,-1,-1,-1,-1,-1,-1,-1,-1,-1,-1,-1,-1,-1,-1],"loss_changes":[9.161291E1,8.5582794E1,6.2879417E1,4.4610893E1,6.550041E1,6.398742E1,0E0,2.0844513E1,3.5071148E1,4.404984E1,4.904975E1,3.6689922E1,0E0,0E0,1.59626465E1,2.339856E1,2.0771557E1,2.1815277E1,0E0,3.2161438E1,0E0,2.60119E1,2.2565125E1,8.874481E0,0E0,1.246365E1,1.693474E1,0E0,0E0,0E0,1.2840496E1,7.353012E0,0E0,0E0,1.2909077E1,0E0,1.0673798E1,4.4859924E0,0E0,0E0,0E0,0E0,0E0,0E0,0E0,0E0,0E0,0E0,0E0,0E0,0E0,0E0,0E0],"parents":[2147483647,0,0,1,1,2,2,3,3,4,4,5,5,7,7,8,8,9,9,10,10,11,11,14,14,15,15,16,16,17,17,19,19,21,21,22,22,23,23,25,25,26,26,30,30,31,31,34,34,36,36,37,37],"right_children":[2,4,6,8,10,12,-1,14,16,18,20,22,-1,-1,24,26,28,30,-1,32,-1,34,36,38,-1,40,42,-1,-1,-1,44,46,-1,-1,48,-1,50,52,-1,-1,-1,-1,-1,-1,-1,-1,-1,-1,-1,-1,-1,-1,-1],"split_conditions":[1E0,2.0894893E-1,8.357857E-3,-5.3874995E-3,-2.2564411E-2,2.2509508E-1,2.2964959E-1,-1.052321E-2,1.5140555E-2,2.3641527E-2,5.9631743E-2,-1.5319313E-3,-9.679575E-2,-3.1220116E-2,5.8891266E-3,-1.8405196E-3,-9.557897E-3,-4.2755376E-3,7.716364E-2,-2.0945583E-4,-3.298258E-2,-1.3931778E-2,7.5365063E-3,6.8705864E-3,-6.975398E-2,-6.239046E-3,9.074663E-3,-1.9590318E-2,1.3826819E-1,-7.0037665E-3,1.6231794E-2,-1.318175E-2,2.1447927E-2,1.1240836E-1,-1.175118E-4,3.1472832E-2,-1.827555E-2,5.462273E-3,-1.15524895E-1,-1.5994754E-1,-5.0267335E-2,6.683707E-2,-7.195621E-2,-7.224064E-2,-1.945047E-1,2.4061874E-1,1.5378538E-1,2.9419525E-2,-9.3539335E-2,2.18888E-1,1.1473772E-1,-2.3643516E-1,-1.657972E-1],"split_indices":[6,4,143,147,208,5,0,172,100,224,213,109,0,0,282,130,287,77,0,58,0,53,222,227,0,103,118,0,0,0,79,66,0,0,247,0,199,259,0,0,0,0,0,0,0,0,0,0,0,0,0,0,0],"split_type":[0,0,0,0,0,0,0,0,0,0,0,0,0,0,0,0,0,0,0,0,0,0,0,0,0,0,0,0,0,0,0,0,0,0,0,0,0,0,0,0,0,0,0,0,0,0,0,0,0,0,0,0,0],"sum_hessian":[2.5966858E3,1.8173257E3,7.7936005E2,1.0207291E3,7.965966E2,6.792665E2,1.0009359E2,4.6266632E2,5.580628E2,4.045024E2,3.920942E2,5.4157855E2,1.3768791E2,9.923098E1,3.6343533E2,3.9076984E2,1.6729297E2,2.836436E2,1.20858826E2,2.8024835E2,1.1184586E2,2.6087778E2,2.8070078E2,2.6549527E2,9.794004E1,2.1427692E2,1.7649292E2,8.542625E1,8.186672E1,1.1129348E2,1.7235011E2,2.0115701E2,7.909134E1,8.8499466E1,1.7237831E2,8.193036E1,1.9877043E2,1.8116E2,8.433529E1,1.2570276E2,8.857415E1,8.578597E1,9.070694E1,8.5010475E1,8.733963E1,8.3909645E1,1.1724737E2,7.933009E1,9.304822E1,1.07638626E2,9.11318E1,9.661474E1,8.454526E1],"tree_param":{"num_deleted":"0","num_feature":"307","num_nodes":"53","size_leaf_vector":"1"}},{"base_weights":[-9.0245705E-4,8.525168E-2,-3.8148192E-1,5.4324526E-1,-3.0304678E-2,-2.387052E-1,-1.6707073E-1,7.3669976E-1,-2.7651077E-3,3.3459678E-1,-1.7559765E-1,-1.0385404E-1,-1.3561556E-1,9.23164E-1,8.450001E-2,-9.7986266E-2,5.7759666E-1,-2.7410683E-1,3.3822668E-1,6.833799E-2,-1.0170899E-1,1.6930522E-1,2.47737E-1,-1.029747E-1,5.7781808E-2,3.264922E-2,7.7466995E-1,-6.278359E-2,-5.449596E-1,-1.4024402E-2,1.9519004E-1,-3.5349265E-2,6.37944E-2,1.0787389E-1,2.1632402E-1,1.7175804E-1,-3.4538588E-1,-7.160703E-1,-4.4943504E-3,-5.5545997E-2,4.2435795E-1,-5.835453E-1,1.5644705E-2,-9.004304E-1,-7.579541E-2,1.6771516E-1,3.4679703E-2,-6.229585E-2,-1.9953178E-1,-1.507634E-1,-2.4054936E-1],"categories":[],"categories_nodes":[],"categories_segments":[],"categories_sizes":[],"default_left":[0,0,0,0,0,0,0,0,0,0,0,0,0,0,0,0,0,0,0,0,0,0,0,0,0,0,0,0,0,0,0,0,0,0,0,0,0,0,0,0,0,0,0,0,0,0,0,0,0,0,0],"id":16,"left_children":[1,3,5,7,9,11,-1,13,-1,15,17,19,-1,21,-1,23,25,27,29,31,-1,-1,-1,-1,-1,-1,33,35,37,-1,-1,-1,-1,-1,-1,39,41,43,-1,-1,45,47,-1,49,-1,-1,-1,-1,-1,-1,-1],"loss_changes":[8.204685E1,1.07986595E2,2.4041405E1,4.4184975E1,8.6382355E1,1.6420221E1,0E0,2.043303E1,0E0,4.8774105E1,5.8984245E1,1.4639761E1,0E0,6.143402E0,0E0,2.149818E1,2.5282578E1,5.596955E1,4.0081272E1,7.9690375E0,0E0,0E0,0E0,0E0,0E0,0E0,1.1432915E1,3.640782E1,3.8490997E1,0E0,0E0,0E0,0E0,0E0,0E0,3.1829458E1,2.4636547E1,2.2500366E1,0E0,0E0,1.6391388E1,1.4863213E1,0E0,8.571716E0,0E0,0E0,0E0,0E0,0E0,0E0,0E0],"parents":[2147483647,0,0,1,1,2,2,3,3,4,4,5,5,7,7,9,9,10,10,11,11,13,13,15,15,16,16,17,17,18,18,19,19,26,26,27,27,28,28,35,35,36,36,37,37,40,40,41,41,43,43],"right_children":[2,4,6,8,10,12,-1,14,-1,16,18,20,-1,22,-1,24,26,28,30,32,-1,-1,-1,-1,-1,-1,34,36,38,-1,-1,-1,-1,-1,-1,40,42,44,-1,-1,46,48,-1,50,-1,-1,-1,-1,-1,-1,-1],"split_conditions":[4.347826E-2,-1.4674254E-2,-4.9348347E-2,1.6487038E-2,-9.631437E-3,1.3100617E-2,-1.6707073E-1,-2.6449097E-2,-2.7651077E-3,-1.00553995E-2,4.1773014E-2,-3.2521375E-2,-1.3561556E-1,8.662946E-3,8.450001E-2,1.7495181E-2,-2.0020993E-2,5.1761072E-2,-1.1179725E-2,5.648403E-3,-1.0170899E-1,1.6930522E-1,2.47737E-1,-1.029747E-1,5.7781808E-2,3.264922E-2,7.036196E-3,8.152143E-3,-1.1962499E-2,-1.4024402E-2,1.9519004E-1,-3.5349265E-2,6.37944E-2,1.0787389E-1,2.1632402E-1,-6.521496E-3,-1.100799E-3,-1.8366606E-3,-4.4943504E-3,-5.5545997E-2,-9.60819E-3,-1.0195047E-3,1.5644705E-2,-8.878625E-3,-7.579541E-2,1.6771516E-1,3.4679703E-2,-6.229585E-2,-1.9953178E-1,-1.507634E-1,-2.4054936E-1],"split_indices":[1,42,89,302,58,302,0,65,0,27,180,65,0,91,0,159,160,213,143,239,0,0,0,0,0,0,234,219,143,0,0,0,0,0,0,123,27,103,0,0,66,272,0,66,0,0,0,0,0,0,0],"split_type":[0,0,0,0,0,0,0,0,0,0,0,0,0,0,0,0,0,0,0,0,0,0,0,0,0,0,0,0,0,0,0,0,0,0,0,0,0,0,0,0,0,0,0,0,0,0,0,0,0,0,0],"sum_hessian":[2.502306E3,2.0404064E3,4.6189948E2,4.110923E2,1.6293141E3,3.319069E2,1.299926E2,3.0492047E2,1.06171814E2,4.6399545E2,1.1653186E3,2.426973E2,8.9209595E1,2.0075696E2,1.04163506E2,1.6689417E2,2.971013E2,9.7784796E2,1.8747069E2,1.6271614E2,7.9981155E1,1.0493954E2,9.581742E1,8.276938E1,8.412478E1,9.310323E1,2.0399806E2,5.492866E2,4.2856134E2,1.070314E2,8.0439285E1,7.958314E1,8.3133E1,8.058248E1,1.2341557E2,3.001672E2,2.4911938E2,3.2320032E2,1.0536103E2,1.1276514E2,1.8740208E2,1.5831784E2,9.0801544E1,2.1717242E2,1.0602789E2,8.501802E1,1.0238406E2,7.9425385E1,7.889246E1,9.4093605E1,1.2307881E2],"tree_param":{"num_deleted":"0","num_feature":"307","num_nodes":"51","size_leaf_vector":"1"}},{"base_weights":[-8.7338843E-4,5.8628384E-2,-4.6744424E-1,-6.0361147E-2,4.010285E-1,-6.8668073E-1,6.002436E-3,1.2433628E-1,-1.2515466E-1,5.575185E-1,-5.1637534E-2,-2.5069594E-1,-7.189292E-2,1.5849075E-1,-3.017793E-1,3.9047197E-1,2.233248E-1,4.7679785E-1,-9.056434E-2,5.9515804E-2,-3.9440584E-1,5.8765584E-1,-4.074403E-2,1.7646727E-1,2.1479022E-2,1.6757543E-1,-9.368362E-2,-6.3004005E-3,-5.079925E-1,7.825097E-2,2.204089E-1,1.0511081E-1,-2.7727751E-2,6.712013E-2,-6.318957E-2,-2.616307E-1,-6.9761604E-1,-1.6743483E-1,-4.262869E-2,-8.1375915E-1,-7.246711E-2,6.864633E-2,-9.209999E-2,-1.1465388E-1,-9.4910645E-1,-1.7089038E-1,-2.490541E-1],"categories":[],"categories_nodes":[],"categories_segments":[],"categories_sizes":[],"default_left":[0,0,0,0,0,0,0,0,0,0,0,0,0,0,0,0,0,0,0,0,0,0,0,0,0,0,0,0,0,0,0,0,0,0,0,0,0,0,0,0,0,0,0,0,0,0,0],"id":17,"left_children":[1,3,5,7,9,11,-1,-1,13,15,-1,-1,-1,17,19,21,-1,23,25,-1,27,29,-1,-1,-1,31,-1,33,35,-1,-1,-1,-1,-1,-1,37,39,-1,41,43,-1,-1,-1,-1,45,-1,-1],"loss_changes":[6.6538795E1,8.6604805E1,2.9374378E1,6.29176E1,5.4184464E1,2.9716263E1,0E0,0E0,7.1503716E1,3.227066E1,0E0,0E0,0E0,4.341922E1,4.6237625E1,3.5936512E1,0E0,2.8496922E1,2.5998333E1,0E0,3.333377E1,2.2372253E1,0E0,0E0,0E0,1.5115745E1,0E0,1.4452245E1,2.73266E1,0E0,0E0,0E0,0E0,0E0,0E0,2.7079922E1,1.4358688E1,0E0,2.2573963E1,1.03022E1,0E0,0E0,0E0,0E0,5.279999E0,0E0,0E0],"parents":[2147483647,0,0,1,1,2,2,3,3,4,4,5,5,8,8,9,9,13,13,14,14,15,15,17,17,18,18,20,20,21,21,25,25,27,27,28,28,35,35,36,36,38,38,39,39,44,44],"right_children":[2,4,6,8,10,12,-1,-1,14,16,-1,-1,-1,18,20,22,-1,24,26,-1,28,30,-1,-1,-1,32,-1,34,36,-1,-1,-1,-1,-1,-1,38,40,-1,42,44,-1,-1,-1,-1,46,-1,-1],"split_conditions":[2.6666668E-1,1.6268386E-2,8.3333336E-2,-4.180693E-2,4.347826E-2,5.882353E-2,6.002436E-3,1.2433628E-1,3.6424216E-2,3.9233565E-2,-5.1637534E-2,-2.5069594E-1,-7.189292E-2,4.5809853E-3,-2.4979658E-2,2.5863014E-2,2.233248E-1,6.021512E-3,-6.6410145E-3,5.9515804E-2,-1.5097895E-2,1.2505262E-2,-4.074403E-2,1.7646727E-1,2.1479022E-2,6.730466E-4,-9.368362E-2,-3.2521375E-2,-4.61629E-3,7.825097E-2,2.204089E-1,1.0511081E-1,-2.7727751E-2,6.712013E-2,-6.318957E-2,-4.8273797E-3,1.3056386E-2,-1.6743483E-1,-1.1549139E-3,-1.0581146E-2,-7.246711E-2,6.864633E-2,-9.209999E-2,-1.1465388E-1,-6.097971E-3,-1.7089038E-1,-2.490541E-1],"split_indices":[3,107,0,264,1,1,0,0,213,180,0,0,0,116,241,302,0,119,153,0,76,98,0,0,0,141,0,65,161,0,0,0,0,0,0,227,265,0,19,288,0,0,0,0,292,0,0],"split_type":[0,0,0,0,0,0,0,0,0,0,0,0,0,0,0,0,0,0,0,0,0,0,0,0,0,0,0,0,0,0,0,0,0,0,0,0,0,0,0,0,0,0,0,0,0,0,0],"sum_hessian":[2.396776E3,2.125687E3,2.7108884E2,1.5774856E3,5.4820154E2,1.8778972E2,8.329911E1,1.5023042E2,1.4272551E3,4.3934702E2,1.088545E2,8.6002365E1,1.0178735E2,5.476968E2,8.7955835E2,3.1838934E2,1.2095769E2,2.4042255E2,3.0727423E2,1.23409225E2,7.561491E2,2.3681207E2,8.1577255E1,1.3231706E2,1.0810549E2,1.7189468E2,1.3537953E2,1.7119751E2,5.849516E2,1.4793564E2,8.887645E1,8.4441605E1,8.745309E1,8.116316E1,9.0034355E1,2.5441362E2,3.3053796E2,7.9028275E1,1.7538535E2,2.5221848E2,7.831951E1,9.007152E1,8.531383E1,7.809259E1,1.7412589E2,8.132288E1,9.280299E1],"tree_param":{"num_deleted":"0","num_feature":"307","num_nodes":"47","size_leaf_vector":"1"}},{"base_weights":[-9.964565E-4,-5.3188086E-1,4.8455056E-2,-4.796593E-2,-1.7218019E-1,-1.574864E-2,4.9478647E-1,-5.816701E-2,1.5572031E-1,2.8996116E-2,7.019942E-1,9.131173E-2,-2.6043552E-1,2.0906228E-1,9.609296E-2,1.6229181E-1,-1.5848969E-1,7.8680456E-2,-3.6666068E-1,3.9812592E-1,-3.050544E-2,3.7268773E-2,-4.7845045E-1,6.6947454E-1,7.1157515E-2,-2.9826018E-1,2.0246512E-1,-5.876627E-1,-1.3437952E-2,2.0952874E-1,6.7895085E-2,6.842845E-2,-5.2679114E-2,-4.8107344E-1,1.6263545E-2,1.2180054E-1,3.8435757E-2,-7.0117944E-1,-5.0456587E-2,-5.780292E-2,-1.5648687E-1,6.831924E-2,-4.3384973E-2,-2.1672623E-1,-5.261504E-1,-5.400268E-2,-1.8336016E-1],"categories":[],"categories_nodes":[],"categories_segments":[],"categories_sizes":[],"default_left":[0,0,0,0,0,0,0,0,0,0,0,0,0,0,0,0,0,0,0,0,0,0,0,0,0,0,0,0,0,0,0,0,0,0,0,0,0,0,0,0,0,0,0,0,0,0,0],"id":18,"left_children":[1,3,5,-1,-1,7,9,11,-1,-1,13,15,17,-1,-1,19,-1,-1,21,23,25,-1,27,29,31,33,35,37,-1,-1,-1,-1,-1,39,-1,-1,41,43,-1,-1,-1,-1,-1,-1,45,-1,-1],"loss_changes":[6.08435E1,1.4867252E1,6.0753693E1,0E0,0E0,5.5907326E1,2.0181587E1,5.288486E1,0E0,0E0,1.0749916E1,5.7045044E1,4.8304676E1,0E0,0E0,4.200174E1,0E0,0E0,3.7742676E1,3.6864647E1,3.1704483E1,0E0,2.392595E1,2.213636E1,1.3533272E1,1.6033497E1,1.5220453E1,1.707817E1,0E0,0E0,0E0,0E0,0E0,7.6883316E0,0E0,0E0,1.1364301E1,1.4751251E1,0E0,0E0,0E0,0E0,0E0,0E0,1.5916233E1,0E0,0E0],"parents":[2147483647,0,0,1,1,2,2,5,5,6,6,7,7,10,10,11,11,12,12,15,15,18,18,19,19,20,20,22,22,23,23,24,24,25,25,26,26,27,27,33,33,36,36,37,37,44,44],"right_children":[2,4,6,-1,-1,8,10,12,-1,-1,14,16,18,-1,-1,20,-1,-1,22,24,26,-1,28,30,32,34,36,38,-1,-1,-1,-1,-1,40,-1,-1,42,44,-1,-1,-1,-1,-1,-1,46,-1,-1],"split_conditions":[1.1195876E-1,-1.2398713E-2,2.0730805E-2,-4.796593E-2,-1.7218019E-1,1.3045175E-2,-8.411574E-3,1.5692824E-2,1.5572031E-1,2.8996116E-2,-5.0500217E-3,4.8518047E-2,-2.5996175E-2,2.0906228E-1,9.609296E-2,2.00407E-2,-1.5848969E-1,7.8680456E-2,-2.979636E-2,8.442316E-3,-4.833162E-3,3.7268773E-2,1.3773162E-2,3.676276E-2,1.0745351E-2,3.5354467E-3,-1.2005703E-2,2.0252172E-2,-1.3437952E-2,2.0952874E-1,6.7895085E-2,6.842845E-2,-5.2679114E-2,4.7256146E-3,1.6263545E-2,1.2180054E-1,2.1257242E-2,-3.4581985E-2,-5.0456587E-2,-5.780292E-2,-1.5648687E-1,6.831924E-2,-4.3384973E-2,-2.1672623E-1,4.504636E-2,-5.400268E-2,-1.8336016E-1],"split_indices":[4,151,287,0,0,143,298,79,0,0,49,302,76,0,0,262,0,0,127,119,103,0,291,213,102,173,211,187,0,0,0,0,0,102,0,0,52,208,0,0,0,0,0,0,213,0,0],"split_type":[0,0,0,0,0,0,0,0,0,0,0,0,0,0,0,0,0,0,0,0,0,0,0,0,0,0,0,0,0,0,0,0,0,0,0,0,0,0,0,0,0,0,0,0,0,0,0],"sum_hessian":[2.3175796E3,1.974853E2,2.1200942E3,8.437063E1,1.1311467E2,1.8534762E3,2.6661807E2,1.7491364E3,1.0433978E2,9.649566E1,1.7012242E2,1.00582227E3,7.4331415E2,9.203572E1,7.808669E1,9.2376135E2,8.206089E1,1.0997076E2,6.333434E2,4.1550543E2,5.0825592E2,1.0979182E2,5.235516E2,2.2706548E2,1.8843996E2,2.364743E2,2.7178162E2,4.1518915E2,1.0836241E2,1.3151163E2,9.5553856E1,1.06762344E2,8.167761E1,1.5839781E2,7.807649E1,8.819949E1,1.8358214E2,3.1614816E2,9.9040985E1,7.825231E1,8.01455E1,8.544797E1,9.813416E1,1.253033E2,1.9084485E2,9.667936E1,9.416549E1],"tree_param":{"num_deleted":"0","num_feature":"307","num_nodes":"47","size_leaf_vector":"1"}},{"base_weights":[-1.3150107E-3,1.5920241E-1,-1.5311418E-1,3.9699933E-1,-1.4712792E-2,2.4384683E-2,-3.2104266E-1,5.210311E-1,-1.8719677E-2,9.425268E-2,-1.2336041E-1,-2.3601937E-1,1.5790673E-1,-4.307114E-1,5.1282372E-2,3.330747E-1,1.9610952E-1,4.282226E-2,-3.9015126E-1,-1.1502592E-1,2.3307724E-4,3.0548277E-1,-4.277479E-2,-6.0673153E-1,-1.8756767E-1,1.23306185E-1,-7.1640923E-3,2.1262182E-1,-8.798218E-2,-1.3669266E-1,-3.4747727E-2,-2.4583345E-2,5.1169914E-1,-7.9994136E-1,-7.868333E-2,-1.02178045E-1,2.910612E-3,9.604077E-2,-2.5417399E-2,6.156092E-2,1.6918994E-1,-2.1813881E-1,-1.3928321E-1],"categories":[],"categories_nodes":[],"categories_segments":[],"categories_sizes":[],"default_left":[0,0,0,0,0,0,0,0,0,0,0,0,0,0,0,0,0,0,0,0,0,0,0,0,0,0,0,0,0,0,0,0,0,0,0,0,0,0,0,0,0,0,0],"id":19,"left_children":[1,3,5,7,9,11,13,15,-1,-1,17,19,21,23,-1,25,-1,27,29,-1,-1,31,-1,33,35,-1,-1,37,-1,-1,-1,-1,39,41,-1,-1,-1,-1,-1,-1,-1,-1,-1],"loss_changes":[5.4822464E1,4.5225685E1,3.4467842E1,2.7535454E1,2.9891418E1,1.954621E1,3.5843246E1,2.4476807E1,0E0,0E0,2.241294E1,1.25399885E1,1.913488E1,2.1203125E1,0E0,1.9058573E1,0E0,2.3044634E1,1.0041372E1,0E0,0E0,2.2363558E1,0E0,1.4179932E1,1.1211529E1,0E0,0E0,1.5806124E1,0E0,0E0,0E0,0E0,1.0074303E1,5.0705795E0,0E0,0E0,0E0,0E0,0E0,0E0,0E0,0E0,0E0],"parents":[2147483647,0,0,1,1,2,2,3,3,4,4,5,5,6,6,7,7,10,10,11,11,12,12,13,13,15,15,17,17,18,18,21,21,23,23,24,24,27,27,32,32,33,33],"right_children":[2,4,6,8,10,12,14,16,-1,-1,18,20,22,24,-1,26,-1,28,30,-1,-1,32,-1,34,36,-1,-1,38,-1,-1,-1,-1,40,42,-1,-1,-1,-1,-1,-1,-1,-1,-1],"split_conditions":[1.7850101E-4,9.1072766E-4,6.724386E-3,6.666667E-2,-2.9057467E-2,-2.8182039E-2,-5.6797755E-3,4.0328084E-3,-1.8719677E-2,9.425268E-2,-3.2451488E-3,6.645169E-2,-5.444996E-4,-3.1018644E-3,5.1282372E-2,-2.1445569E-2,1.9610952E-1,7.008421E-2,-4.7009857E-3,-1.1502592E-1,2.3307724E-4,-2.1922264E-2,-4.277479E-2,-8.609015E-3,1.2450864E-2,1.23306185E-1,-7.1640923E-3,-1.5142567E-2,-8.798218E-2,-1.3669266E-1,-3.4747727E-2,-2.4583345E-2,-8.241757E-3,1.3562736E-4,-7.868333E-2,-1.02178045E-1,2.910612E-3,9.604077E-2,-2.5417399E-2,6.156092E-2,1.6918994E-1,-2.1813881E-1,-1.3928321E-1],"split_indices":[56,17,113,1,151,18,143,160,0,0,200,138,200,75,0,85,0,213,192,0,0,250,0,304,119,0,0,199,0,0,0,0,271,185,0,0,0,0,0,0,0,0,0],"split_type":[0,0,0,0,0,0,0,0,0,0,0,0,0,0,0,0,0,0,0,0,0,0,0,0,0,0,0,0,0,0,0,0,0,0,0,0,0,0,0,0,0,0,0],"sum_hessian":[2.2499197E3,1.0935568E3,1.1563628E3,4.6193964E2,6.316171E2,5.6216235E2,5.9420044E2,3.6717752E2,9.476213E1,1.2609269E2,5.055244E2,1.9054607E2,3.716163E2,4.954212E2,9.8779236E1,2.3999304E2,1.2718448E2,3.1149545E2,1.9402895E2,8.776627E1,1.027798E2,2.6115698E2,1.1045931E2,2.873782E2,2.0804301E2,1.5038382E2,8.960921E1,2.2414227E2,8.7353195E1,1.0016011E2,9.3868835E1,8.665685E1,1.7450014E2,1.6360368E2,1.2377451E2,8.891919E1,1.1912383E2,1.3477762E2,8.936465E1,8.8518394E1,8.598174E1,8.270002E1,8.090366E1],"tree_param":{"num_deleted":"0","num_feature":"307","num_nodes":"43","size_leaf_vector":"1"}},{"base_weights":[-1.1420731E-3,-7.498756E-2,3.1657165E-1,-2.1421489E-1,1.1515176E-1,4.420973E-1,-3.259392E-2,-3.8042006E-1,-1.2908911E-2,2.3193294E-1,-7.6615244E-2,1.7131981E-1,2.0407003E-1,-5.03086E-1,2.3917448E-2,2.2960316E-1,-2.8596544E-1,4.3519703E-1,-1.484096E-2,1.20731294E-1,-1.6199917E-2,-3.2661435E-1,-7.795223E-1,-1.7261192E-2,1.0530866E-1,2.3069074E-3,-1.05747886E-1,2.1905344E-2,6.472499E-1,-2.578943E-1,1.0350854E-1,-3.5600357E-3,-5.1247346E-1,-1.274863E-1,-2.3226805E-1,1.9983602E-1,9.8127216E-2,5.644855E-3,-1.3100585E-1,-1.651848E-1,-6.2238704E-2],"categories":[],"categories_nodes":[],"categories_segments":[],"categories_sizes":[],"default_left":[0,0,0,0,0,0,0,0,0,0,0,0,0,0,0,0,0,0,0,0,0,0,0,0,0,0,0,0,0,0,0,0,0,0,0,0,0,0,0,0,0],"id":20,"left_children":[1,3,5,7,9,11,-1,13,15,17,-1,-1,19,21,-1,23,25,27,29,-1,-1,31,33,-1,-1,-1,-1,-1,35,37,-1,-1,39,-1,-1,-1,-1,-1,-1,-1,-1],"loss_changes":[5.158225E1,4.722536E1,2.4051918E1,3.445661E1,4.026851E1,2.5061592E1,0E0,3.371369E1,3.0841194E1,3.0130405E1,0E0,0E0,1.7382645E1,2.1983849E1,0E0,1.8203745E1,1.2087587E1,2.356466E1,3.1456905E1,0E0,0E0,1.5884323E1,9.511406E0,0E0,0E0,0E0,0E0,0E0,1.0364082E1,1.6643173E1,0E0,0E0,9.088409E0,0E0,0E0,0E0,0E0,0E0,0E0,0E0,0E0],"parents":[2147483647,0,0,1,1,2,2,3,3,4,4,5,5,7,7,8,8,9,9,12,12,13,13,15,15,16,16,17,17,18,18,21,21,22,22,28,28,29,29,32,32],"right_children":[2,4,6,8,10,12,-1,14,16,18,-1,-1,20,22,-1,24,26,28,30,-1,-1,32,34,-1,-1,-1,-1,-1,36,38,-1,-1,40,-1,-1,-1,-1,-1,-1,-1,-1],"split_conditions":[1.7996686E-2,4.5207953E-3,4.347826E-2,-3.0558847E-3,6.666667E-2,-7.6824045E-3,-3.259392E-2,3.91666E-2,7.441343E-3,5.0921354E-2,-7.6615244E-2,1.7131981E-1,-1.4606491E-2,-1.3864729E-2,2.3917448E-2,4.3646E-3,-3.7902985E-3,-6.3575646E-3,1.568733E-2,1.20731294E-1,-1.6199917E-2,-6.142744E-3,2.4962524E-2,-1.7261192E-2,1.0530866E-1,2.3069074E-3,-1.05747886E-1,2.1905344E-2,-2.2885392E-3,-3.8898448E-4,1.0350854E-1,-3.5600357E-3,-9.347998E-3,-1.274863E-1,-2.3226805E-1,1.9983602E-1,9.8127216E-2,5.644855E-3,-1.3100585E-1,-1.651848E-1,-6.2238704E-2],"split_indices":[91,291,1,130,1,42,0,62,113,213,0,0,151,197,0,179,19,186,98,0,0,211,302,0,0,0,0,0,142,272,0,0,229,0,0,0,0,0,0,0,0],"split_type":[0,0,0,0,0,0,0,0,0,0,0,0,0,0,0,0,0,0,0,0,0,0,0,0,0,0,0,0,0,0,0,0,0,0,0,0,0,0,0,0,0],"sum_hessian":[2.1985703E3,1.7839344E3,4.146359E2,1.0298435E3,7.54091E2,3.260657E2,8.8570175E1,5.641016E2,4.6574182E2,6.006827E2,1.5340834E2,1.3836308E2,1.8770264E2,4.506443E2,1.13457344E2,2.4666718E2,2.1907466E2,3.2937842E2,2.7130423E2,8.48522E1,1.02850426E2,2.750547E2,1.7558961E2,1.08451324E2,1.3821585E2,8.455841E1,1.3451625E2,1.2712272E2,2.022557E2,1.7973126E2,9.1572975E1,1.029477E2,1.7210698E2,9.6686455E1,7.890315E1,9.310915E1,1.0914656E2,9.634462E1,8.3386635E1,8.781693E1,8.429005E1],"tree_param":{"num_deleted":"0","num_feature":"307","num_nodes":"41","size_leaf_vector":"1"}},{"base_weights":[-1.0622498E-3,-1.0039024E-1,2.2936867E-1,6.570976E-2,-2.3424004E-1,4.20659E-1,-2.7962282E-1,1.9774446E-1,-2.978433E-1,-4.6436498E-1,-2.0546434E-2,7.869788E-2,6.2509364E-1,1.3004536E-3,-1.15316994E-1,-1.3163815E-1,3.9182842E-1,-1.558141E-2,-1.225277E-1,-1.033678E-2,-6.1857677E-1,7.357739E-2,-1.5841955E-1,1.1466858E-1,-6.0794313E-2,4.604211E-1,2.1768652E-1,3.741307E-2,-9.119001E-2,5.824343E-1,5.503694E-3,-4.4368573E-2,-7.795622E-1,-7.1402425E-3,-1.1793816E-1,1.8895164E-1,4.2989198E-2,1.8244177E-1,5.147485E-2,-1.2295622E-1,-2.0761211E-1,5.7130326E-2,-5.1262848E-2],"categories":[],"categories_nodes":[],"categories_segments":[],"categories_sizes":[],"default_left":[0,0,0,0,0,0,0,0,0,0,0,0,0,0,0,0,0,0,0,0,0,0,0,0,0,0,0,0,0,0,0,0,0,0,0,0,0,0,0,0,0,0,0],"id":21,"left_children":[1,3,5,7,9,11,13,15,17,19,21,23,25,-1,-1,27,29,-1,-1,-1,31,-1,33,-1,-1,35,-1,-1,-1,37,-1,-1,39,41,-1,-1,-1,-1,-1,-1,-1,-1,-1],"loss_changes":[4.890664E1,3.31961E1,6.2666298E1,3.1983404E1,4.0660805E1,3.2703888E1,1.1808307E1,3.1246853E1,1.010131E1,2.5675346E1,2.0634926E1,2.655928E1,1.6727478E1,0E0,0E0,1.4916458E1,2.1529251E1,0E0,0E0,0E0,1.9687515E1,0E0,1.712004E1,0E0,0E0,2.0431038E1,0E0,0E0,0E0,1.6578735E1,0E0,0E0,7.1514816E0,1.2669247E1,0E0,0E0,0E0,0E0,0E0,0E0,0E0,0E0,0E0],"parents":[2147483647,0,0,1,1,2,2,3,3,4,4,5,5,6,6,7,7,8,8,9,9,10,10,11,11,12,12,15,15,16,16,20,20,22,22,25,25,29,29,32,32,33,33],"right_children":[2,4,6,8,10,12,14,16,18,20,22,24,26,-1,-1,28,30,-1,-1,-1,32,-1,34,-1,-1,36,-1,-1,-1,38,-1,-1,40,42,-1,-1,-1,-1,-1,-1,-1,-1,-1],"split_conditions":[1.4093737E-2,-9.184246E-3,6.666667E-2,-6.345989E-3,-7.918306E-3,4.3734997E-3,-4.5755743E-3,-1.5323707E-2,-6.71395E-3,-1.092955E-2,-5.0642397E-2,6.825906E-3,-1.8505162E-2,1.3004536E-3,-1.15316994E-1,-4.473753E-3,2.996611E-3,-1.558141E-2,-1.225277E-1,-1.033678E-2,-1.7996235E-3,7.357739E-2,2.3547394E-2,1.1466858E-1,-6.0794313E-2,-1.0396595E-2,2.1768652E-1,3.741307E-2,-9.119001E-2,3.9363774E-3,5.503694E-3,-4.4368573E-2,-1.2174898E-3,1.0517681E-3,-1.1793816E-1,1.8895164E-1,4.2989198E-2,1.8244177E-1,5.147485E-2,-1.2295622E-1,-2.0761211E-1,5.7130326E-2,-5.1262848E-2],"split_indices":[100,66,1,199,103,62,60,287,11,161,65,189,143,0,0,240,95,0,0,0,73,0,116,0,0,211,0,0,0,202,0,0,142,141,0,0,0,0,0,0,0,0,0],"split_type":[0,0,0,0,0,0,0,0,0,0,0,0,0,0,0,0,0,0,0,0,0,0,0,0,0,0,0,0,0,0,0,0,0,0,0,0,0,0,0,0,0,0,0],"sum_hessian":[2.1367583E3,1.4931368E3,6.4362146E2,6.6629846E2,8.2683844E2,4.6780856E2,1.7581287E2,4.8878293E2,1.775155E2,3.9811337E2,4.287251E2,1.7503114E2,2.9277744E2,7.9445404E1,9.636746E1,1.8122444E2,3.075585E2,9.266445E1,8.485104E1,1.0725314E2,2.9086023E2,1.2138287E2,3.0734222E2,7.822546E1,9.680569E1,1.9854385E2,9.4233574E1,8.696046E1,9.426398E1,2.0247365E2,1.0508485E2,8.053143E1,2.103288E2,2.1784286E2,8.9499344E1,8.177816E1,1.16765686E2,1.2207015E2,8.0403496E1,8.206855E1,1.2826025E2,9.981171E1,1.1803116E2],"tree_param":{"num_deleted":"0","num_feature":"307","num_nodes":"43","size_leaf_vector":"1"}},{"base_weights":[-9.5817057E-4,2.4859428E-1,-7.4412666E-2,3.8228282E-1,-2.2298904E-2,-2.4151161E-1,7.082191E-2,5.5147725E-1,1.4322854E-2,2.8577747E-2,-3.366325E-1,4.2285332E-1,-3.6476925E-2,1.7979047E-1,6.2050328E-2,-4.231359E-1,2.0939708E-2,4.4903576E-2,1.6643263E-1,2.0668466E-1,-2.197865E-1,-1.6440324E-1,-5.5402505E-1,-1.6541136E-2,4.3513575E-1,-4.487484E-1,-2.5251757E-2,-1.0041118E-1,3.204373E-2,-6.383003E-2,-7.3302686E-1,5.4718617E-2,1.4001507E-1,-1.621E-1,-4.4172347E-2,6.656433E-2,-5.6476437E-2,-1.2900668E-1,-2.1401899E-1],"categories":[],"categories_nodes":[],"categories_segments":[],"categories_sizes":[],"default_left":[0,0,0,0,0,0,0,0,0,0,0,0,0,0,0,0,0,0,0,0,0,0,0,0,0,0,0,0,0,0,0,0,0,0,0,0,0,0,0],"id":22,"left_children":[1,3,5,7,-1,9,11,13,-1,-1,15,17,19,-1,-1,21,-1,-1,-1,23,25,27,29,-1,31,33,35,-1,-1,-1,37,-1,-1,-1,-1,-1,-1,-1,-1],"loss_changes":[3.8269997E1,2.2098679E1,3.9144608E1,1.8476246E1,0E0,2.6334473E1,3.2595657E1,1.5449005E1,